{"learner":{"attributes":{"scikit_learn":"{\"_estimator_type\": \"classifier\"}"},"feature_names":["step","amount","oldbalanceOrg","newbalanceOrig","oldbalanceDest","newbalanceDest"],"feature_types":["int","float","float","float","float","float"],"gradient_booster":{"model":{"gbtree_model_param":{"num_parallel_tree":"1","num_trees":"200"},"iteration_indptr":[0,1,2,3,4,5,6,7,8,9,10,11,12,13,14,15,16,17,18,19,20,21,22,23,24,25,26,27,28,29,30,31,32,33,34,35,36,37,38,39,40,41,42,43,44,45,46,47,48,49,50,51,52,53,54,55,56,57,58,59,60,61,62,63,64,65,66,67,68,69,70,71,72,73,74,75,76,77,78,79,80,81,82,83,84,85,86,87,88,89,90,91,92,93,94,95,96,97,98,99,100,101,102,103,104,105,106,107,108,109,110,111,112,113,114,115,116,117,118,119,120,121,122,123,124,125,126,127,128,129,130,131,132,133,134,135,136,137,138,139,140,141,142,143,144,145,146,147,148,149,150,151,152,153,154,155,156,157,158,159,160,161,162,163,164,165,166,167,168,169,170,171,172,173,174,175,176,177,178,179,180,181,182,183,184,185,186,187,188,189,190,191,192,193,194,195,196,197,198,199,200],"tree_info":[0,0,0,0,0,0,0,0,0,0,0,0,0,0,0,0,0,0,0,0,0,0,0,0,0,0,0,0,0,0,0,0,0,0,0,0,0,0,0,0,0,0,0,0,0,0,0,0,0,0,0,0,0,0,0,0,0,0,0,0,0,0,0,0,0,0,0,0,0,0,0,0,0,0,0,0,0,0,0,0,0,0,0,0,0,0,0,0,0,0,0,0,0,0,0,0,0,0,0,0,0,0,0,0,0,0,0,0,0,0,0,0,0,0,0,0,0,0,0,0,0,0,0,0,0,0,0,0,0,0,0,0,0,0,0,0,0,0,0,0,0,0,0,0,0,0,0,0,0,0,0,0,0,0,0,0,0,0,0,0,0,0,0,0,0,0,0,0,0,0,0,0,0,0,0,0,0,0,0,0,0,0,0,0,0,0,0,0,0,0,0,0,0,0,0,0,0,0,0,0],"trees":[{"base_weights":[-1.3823691E-7,-1.4769791E-1,3.6493168E1,-3.8106617E-1,8.087341E0,-9.694755E-2,4.7571514E1,-6.195871E-1,3.4276757E0,-9.8310274E-1,3.2600092E2,-8.696512E-1,-1.1345546E-1,4.1580585E-1,9.326782E0,-1.9050997E-2,-9.87557E-2,4.521596E1,4.554158E-2,2.9475532E0,-8.7896085E-1,6.6621428E0,-9.999215E-2,1.7181474E0,-9.946187E-2,8.135128E1,-9.7977424E-1,1.4547454E-2,6.3733864E-1,-9.8072454E-2,-7.3570326E-2,2.1711338E1,2.900847E-1,-6.602198E-2,4.2843422E-1,3.818273E1,4.2225165E0,-9.937214E-2,-6.363108E-2],"categories":[],"categories_nodes":[],"categories_segments":[],"categories_sizes":[],"default_left":[0,0,0,0,0,0,0,0,0,0,0,0,0,0,0,0,0,0,0,0,0,0,0,0,0,0,0,0,0,0,0,0,0,0,0,0,0,0,0],"id":0,"left_children":[1,3,5,7,9,-1,-1,11,13,15,17,19,21,23,25,-1,-1,-1,-1,27,29,31,-1,33,-1,35,37,-1,-1,-1,-1,-1,-1,-1,-1,-1,-1,-1,-1],"loss_changes":[4.4221387E4,1.5706716E4,5.446348E5,7.2217847E3,6.497877E5,0E0,0E0,9.465591E2,8.320241E3,5.884552E-1,2.5651381E5,1.8048901E2,1.4869673E4,5.7333844E2,1.175945E5,0E0,0E0,0E0,0E0,1.18192635E2,7.209204E1,2.2609564E5,0E0,9.925865E2,0E0,2.1700073E5,3.5827637E-2,0E0,0E0,0E0,0E0,0E0,0E0,0E0,0E0,0E0,0E0,0E0,0E0],"parents":[2147483647,0,0,1,1,2,2,3,3,4,4,7,7,8,8,9,9,10,10,11,11,12,12,13,13,14,14,19,19,20,20,21,21,23,23,25,25,26,26],"right_children":[2,4,6,8,10,-1,-1,12,14,16,18,20,22,24,26,-1,-1,-1,-1,28,30,32,-1,34,-1,36,38,-1,-1,-1,-1,-1,-1,-1,-1,-1,-1,-1,-1],"split_conditions":[2.83332E6,7.123984E5,2.5124882E6,4.16E2,7.0541306E5,-9.694755E-2,4.7571514E1,5.2675E4,5.5255E4,9E0,4.0754E2,8E0,4.0754E2,5.483565E4,4.0754E2,-1.9050997E-2,-9.87557E-2,4.521596E1,4.554158E-2,1.0073E4,1.666E3,4.77635E3,-9.999215E-2,1.445E3,-9.946187E-2,6.306438E4,3.4922284E5,1.4547454E-2,6.3733864E-1,-9.8072454E-2,-7.3570326E-2,2.1711338E1,2.900847E-1,-6.602198E-2,4.2843422E-1,3.818273E1,4.2225165E0,-9.937214E-2,-6.363108E-2],"split_indices":[1,1,2,0,2,0,0,2,2,0,3,0,3,1,3,0,0,0,0,2,2,5,0,2,0,5,1,0,0,0,0,0,0,0,0,0,0,0,0],"split_type":[0,0,0,0,0,0,0,0,0,0,0,0,0,0,0,0,0,0,0,0,0,0,0,0,0,0,0,0,0,0,0,0,0,0,0,0,0,0,0],"sum_hessian":[8.2024E3,8.1703286E3,3.2071587E1,7.946102E3,2.2422652E2,3.0470457E1,1.6011299E0,7.4785957E3,4.6750674E2,2.1897578E2,5.250726E0,5.0050405E3,2.473555E3,3.1020023E2,1.573065E2,1.468347E0,2.1750745E2,3.503922E0,1.7468044E0,1.1409018E1,4.9936313E3,2.8542526E2,2.1881296E3,1.6116623E2,1.49034E2,1.8829391E1,1.3847711E2,6.849278E0,4.5597396E0,2.9162288E3,2.0774028E3,4.0157166E0,2.8140955E2,8.402967E1,7.713656E1,1.1602391E0,1.7669151E1,1.3125398E2,7.2231326E0],"tree_param":{"num_deleted":"0","num_feature":"6","num_nodes":"39","size_leaf_vector":"1"}},{"base_weights":[-9.838524E-1,-9.063263E-1,-4.2560773E0,-1.5236778E0,-5.790747E-1,-9.8104227E-1,-2.9367094E1,-7.937833E-1,-7.250239E0,-7.74852E-1,-1.5288715E-1,-1.371141E-2,-9.85972E-2,-8.697287E-1,1.4357565E-1,-5.941806E1,-9.876902E-1,-2.967855E-1,-1.0092924E0,1.7784914E0,-9.9951744E-2,9.4042915E-1,-8.8028204E-1,-9.234047E-2,7.2046657E0,-9.720845E-2,-1.0108898E2,-9.910148E-2,-1.7240293E-2,-8.0341333E-1,5.1511276E-1,-9.8919964E-1,-1.0684382E0,7.2068304E-1,1.35829E1,4.4174558E-1,-9.042699E-2,-7.6098435E-2,-1.0003412E-1,1.0528543E-1,-9.923339E-2,-7.893501E-2,1.8853315E0,5.1272508E-2,-9.849059E-2,1.6679949E-1,-9.964234E-2,-1.9119008E-2,-9.902306E-2,-4.6140257E-2,-1.073186E-1,6.8652767E-1,3.5172753E-2,3.6948788E0,6.95332E-1],"categories":[],"categories_nodes":[],"categories_segments":[],"categories_sizes":[],"default_left":[0,0,0,0,0,0,0,0,0,0,0,0,0,0,0,0,0,0,0,0,0,0,0,0,0,0,0,0,0,0,0,0,0,0,0,0,0,0,0,0,0,0,0,0,0,0,0,0,0,0,0,0,0,0,0],"id":1,"left_children":[1,3,5,7,9,11,-1,13,15,17,19,-1,-1,21,23,25,27,29,31,33,-1,35,37,39,41,-1,-1,-1,-1,43,45,47,49,51,53,-1,-1,-1,-1,-1,-1,-1,-1,-1,-1,-1,-1,-1,-1,-1,-1,-1,-1,-1,-1],"loss_changes":[2.1913955E3,1.7071807E3,1.8928586E5,1.2234352E4,4.6105322E2,6.9174194E-1,0E0,1.8510547E2,1.0805723E5,4.2415063E2,2.848651E3,0E0,0E0,4.674951E1,3.2651648E2,1.9704946E6,6.3275146E-1,5.135513E2,1.9626465E0,6.620198E3,0E0,9.6465965E1,3.3476807E1,1.9715271E2,6.04963E2,0E0,0E0,0E0,0E0,1.8408997E2,8.380321E2,1.3820801E0,1.3256226E0,1.1047118E3,6.498674E3,0E0,0E0,0E0,0E0,0E0,0E0,0E0,0E0,0E0,0E0,0E0,0E0,0E0,0E0,0E0,0E0,0E0,0E0,0E0,0E0],"parents":[2147483647,0,0,1,1,2,2,3,3,4,4,5,5,7,7,8,8,9,9,10,10,13,13,14,14,15,15,16,16,17,17,18,18,19,19,21,21,22,22,23,23,24,24,29,29,30,30,31,31,32,32,33,33,34,34],"right_children":[2,4,6,8,10,12,-1,14,16,18,20,-1,-1,22,24,26,28,30,32,34,-1,36,38,40,42,-1,-1,-1,-1,44,46,48,50,52,54,-1,-1,-1,-1,-1,-1,-1,-1,-1,-1,-1,-1,-1,-1,-1,-1,-1,-1,-1,-1],"split_conditions":[7.95478E5,4.77635E3,6.513389E5,5.483565E4,1.11577E5,9E0,-2.9367094E1,4.16E2,4.0754E2,1.0963665E5,4.0754E2,-1.371141E-2,-9.85972E-2,8E0,4.064376E4,4.9768E4,1.0306686E7,1.2526E4,4.16E2,3.359513E5,-9.9951744E-2,4.0754E2,4.0754E2,4.0754E2,4.0339E4,-9.720845E-2,-1.0108898E2,-9.910148E-2,-1.7240293E-2,1.16377E4,4.0754E2,8E0,1.1155564E5,1.4968031E5,4.16E2,4.4174558E-1,-9.042699E-2,-7.6098435E-2,-1.0003412E-1,1.0528543E-1,-9.923339E-2,-7.893501E-2,1.8853315E0,5.1272508E-2,-9.849059E-2,1.6679949E-1,-9.964234E-2,-1.9119008E-2,-9.902306E-2,-4.6140257E-2,-1.073186E-1,6.8652767E-1,3.5172753E-2,3.6948788E0,6.95332E-1],"split_indices":[1,5,2,1,2,0,0,0,3,1,3,0,0,0,1,2,2,2,0,2,0,3,3,3,2,0,0,0,0,1,3,0,1,1,0,0,0,0,0,0,0,0,0,0,0,0,0,0,0,0,0,0,0,0,0],"split_type":[0,0,0,0,0,0,0,0,0,0,0,0,0,0,0,0,0,0,0,0,0,0,0,0,0,0,0,0,0,0,0,0,0,0,0,0,0,0,0,0,0,0,0,0,0,0,0,0,0,0,0,0,0,0,0],"sum_hessian":[8.652539E3,8.453534E3,1.9900551E2,2.9274053E3,5.5261284E3,1.977709E2,1.2345972E0,2.5974756E3,3.2992972E2,3.786096E3,1.7400326E3,1.3158745E0,1.9645503E2,2.402866E3,1.9460951E2,3.445204E1,2.954777E2,1.2465071E3,2.5395889E3,5.299596E2,1.210073E3,1.3416966E1,2.389449E3,1.892727E2,5.3368154E0,3.340132E1,1.0507185E0,2.9406305E2,1.4146352E0,7.6755804E2,4.7894897E2,1.9088496E3,6.307392E2,4.8734872E2,4.2610897E1,4.167353E0,9.249614E0,1.2022057E3,1.1872433E3,8.3215485E1,1.0605721E2,3.7177231E0,1.619092E0,9.2796455E1,6.747616E2,2.7165112E2,2.0729784E2,2.7034748E0,1.9061461E3,5.6569176E0,6.250823E2,2.660818E1,4.6074054E2,8.407042E0,3.4203857E1],"tree_param":{"num_deleted":"0","num_feature":"6","num_nodes":"55","size_leaf_vector":"1"}},{"base_weights":[-5.02228E-1,-4.1183078E-1,-4.602454E0,-7.913171E-2,-9.9942505E-2,-9.7877073E-1,-3.078488E1,-5.1195264E-1,3.156301E0,-1.2522181E-2,-9.842204E-2,-8.8486546E-1,1.4795351E-1,6.540795E1,9.570348E-1,-9.6447706E-1,-4.5848158E-1,1.2230373E1,-4.762714E-1,1.2512808E1,7.8777915E-1,6.193921E-2,-9.851925E-2,3.5433662E-1,-8.8967785E-2,4.582305E-1,3.0833296E1,2.0226834E0,-5.239737E-2,3.1343422E0,5.2545184E-1,2.201437E-1,2.2253027E-2],"categories":[],"categories_nodes":[],"categories_segments":[],"categories_sizes":[],"default_left":[0,0,0,0,0,0,0,0,0,0,0,0,0,0,0,0,0,0,0,0,0,0,0,0,0,0,0,0,0,0,0,0,0],"id":2,"left_children":[1,3,5,7,-1,9,-1,11,13,-1,-1,15,17,-1,19,21,23,25,27,29,31,-1,-1,-1,-1,-1,-1,-1,-1,-1,-1,-1,-1],"loss_changes":[3.1032002E3,1.602533E3,1.9817014E5,7.33292E3,0E0,7.116394E-1,0E0,1.136669E3,8.8386856E5,0E0,0E0,9.973096E1,1.2589157E4,0E0,1.1964857E3,8.217114E1,8.076375E2,1.8428347E5,1.5782946E3,1.0430271E3,4.8609583E2,0E0,0E0,0E0,0E0,0E0,0E0,0E0,0E0,0E0,0E0,0E0,0E0],"parents":[2147483647,0,0,1,1,2,2,3,3,5,5,7,7,8,8,11,11,12,12,14,14,15,15,16,16,17,17,18,18,19,19,20,20],"right_children":[2,4,6,8,-1,10,-1,12,14,-1,-1,16,18,-1,20,22,24,26,28,30,32,-1,-1,-1,-1,-1,-1,-1,-1,-1,-1,-1,-1],"split_conditions":[7.95478E5,4.0754E2,5.27095E5,1.56674E5,-9.9942505E-2,9E0,-3.078488E1,1.2526E4,1.0633585E5,-1.2522181E-2,-9.842204E-2,1.445E3,3.648309E4,6.540795E1,1.7856948E5,5.2563E2,9.58405E3,5.0095E4,2.225043E4,3.96E2,3.556043E5,6.193921E-2,-9.851925E-2,3.5433662E-1,-8.8967785E-2,4.582305E-1,3.0833296E1,2.0226834E0,-5.239737E-2,3.1343422E0,5.2545184E-1,2.201437E-1,2.2253027E-2],"split_indices":[1,3,2,2,0,0,0,2,5,0,0,2,5,0,1,1,1,2,1,0,1,0,0,0,0,0,0,0,0,0,0,0,0],"split_type":[0,0,0,0,0,0,0,0,0,0,0,0,0,0,0,0,0,0,0,0,0,0,0,0,0,0,0,0,0,0,0,0,0],"sum_hessian":[8.37645E3,8.196836E3,1.7961436E2,5.234288E3,2.9625476E3,1.7848476E2,1.1296003E0,4.6174316E3,6.168565E2,1.2844615E0,1.772003E2,2.9500298E3,1.6674019E3,1.0790493E0,6.1577747E2,2.4848188E3,4.6521094E2,8.099917E1,1.5864027E3,7.8362527E0,6.079412E2,3.1706322E1,2.4531125E3,4.454841E1,4.2066254E2,7.9949615E1,1.0495526E0,2.6743984E0,1.5837283E3,1.2569581E0,6.579294E0,1.7282365E2,4.3511755E2],"tree_param":{"num_deleted":"0","num_feature":"6","num_nodes":"33","size_leaf_vector":"1"}},{"base_weights":[-8.934811E-2,-2.438961E-1,5.1653152E1,-4.7250897E-1,1.2373593E1,-9.5651746E-2,6.1010662E1,-7.613594E-1,1.787163E-1,-9.7222686E-1,8.850951E1,-5.040303E-1,-1.1030967E0,1.8795148E0,-9.974234E-2,-1.0073549E-2,-9.792161E-2,-7.02513E-1,1.0154723E0,-2.297996E0,-1.0057876E0,1.1199786E2,3.0671167E-1,-8.147102E-2,4.1391116E-2,1.8178546E-1,-9.9189416E-2,-2.869736E0,-9.949314E-2,-1.1447521E-2,-1.0067314E-1,2.7029661E1,5.7180457E0,-7.0187774E0,4.8816834E-2],"categories":[],"categories_nodes":[],"categories_segments":[],"categories_sizes":[],"default_left":[0,0,0,0,0,0,0,0,0,0,0,0,0,0,0,0,0,0,0,0,0,0,0,0,0,0,0,0,0,0,0,0,0,0,0],"id":3,"left_children":[1,3,5,7,9,-1,-1,11,13,15,-1,17,19,21,-1,-1,-1,23,25,27,29,31,33,-1,-1,-1,-1,-1,-1,-1,-1,-1,-1,-1,-1],"loss_changes":[6.3238215E4,2.2747162E4,6.9248194E5,1.4569426E3,1.6354399E6,0E0,0E0,4.7124878E2,4.7636323E3,7.4938965E-1,0E0,9.2431366E2,2.6555737E2,1.685715E5,0E0,0E0,0E0,3.3968738E2,5.723257E2,5.9125146E3,1.6787109E0,1.0347753E5,1.2324521E4,0E0,0E0,0E0,0E0,0E0,0E0,0E0,0E0,0E0,0E0,0E0,0E0],"parents":[2147483647,0,0,1,1,2,2,3,3,4,4,7,7,8,8,9,9,11,11,12,12,13,13,17,17,18,18,19,19,20,20,21,21,22,22],"right_children":[2,4,6,8,10,-1,-1,12,14,16,-1,18,20,22,-1,-1,-1,24,26,28,30,32,34,-1,-1,-1,-1,-1,-1,-1,-1,-1,-1,-1,-1],"split_conditions":[2.83332E6,7.95478E5,1.950254E5,1.08077E5,4.2579028E5,-9.5651746E-2,6.1010662E1,1.0771922E5,4.0754E2,9E0,8.850951E1,4.06E2,3.648309E4,4.77635E3,-9.974234E-2,-1.0073549E-2,-9.792161E-2,5.8818E4,4.0754E2,4.0754E2,8E0,4.16E2,1.1506314E5,-8.147102E-2,4.1391116E-2,1.8178546E-1,-9.9189416E-2,-2.869736E0,-9.949314E-2,-1.1447521E-2,-1.0067314E-1,2.7029661E1,5.7180457E0,-7.0187774E0,4.8816834E-2],"split_indices":[1,1,2,2,2,0,0,1,3,0,0,0,5,5,0,0,0,2,3,3,0,0,5,0,0,0,0,0,0,0,0,0,0,0,0],"split_type":[0,0,0,0,0,0,0,0,0,0,0,0,0,0,0,0,0,0,0,0,0,0,0,0,0,0,0,0,0,0,0,0,0,0,0],"sum_hessian":[7.905465E3,7.882915E3,2.2549934E1,7.7435737E3,1.3934117E2,2.152083E1,1.0291041E0,5.364143E3,2.3794304E3,1.3822627E2,1.114896E0,3.0613862E3,2.302757E3,9.7250586E2,1.4069247E3,1.2223606E0,1.370039E2,2.7081729E3,3.5321326E2,1.7170503E2,2.131052E3,1.2705888E1,9.597999E2,2.4611091E3,2.4706367E2,2.524133E2,1.0079996E2,7.0877714E0,1.6461726E2,2.3836677E0,2.1286682E3,2.257101E0,1.0448787E1,1.473709E0,9.5832623E2],"tree_param":{"num_deleted":"0","num_feature":"6","num_nodes":"35","size_leaf_vector":"1"}},{"base_weights":[-1.2325604E0,-6.175952E-1,-3.2134266E1,-7.913644E-1,2.913282E-2,-6.496705E0,-1.812414E2,-1.3517681E0,-7.3418283E-1,1.2353299E0,-2.9083252E-1,-9.7234225E-1,-1.3490086E2,-6.7072386E-1,-2.2285326E0,-8.951256E-1,-4.465324E-1,2.4567912E0,-9.7589654E-1,-5.836991E-1,1.1653956E0,-8.317139E-3,-9.792894E-2,-7.6873355E-2,-3.0093647E1,2.1107078E0,-8.2041997E-1,-4.8439784E0,-8.3941483E-1,-8.3590806E-1,-2.1565423E0,7.8548783E-1,-9.993539E-2,-1.5353996E-1,5.7060823E0,-9.9284194E-2,-4.18405E-2,2.410771E0,-7.2414637E-1,1.8453228E0,-9.809984E-2,-2.0506615E-2,4.4039628E-1,8.889447E-2,-8.46174E-2,-1.4058992E1,-9.883265E-2,9.4943486E-2,-8.7001465E-2,-9.779882E-2,-6.3727476E-2,-4.087154E-1,-5.8542043E-2,1.1109309E1,3.624737E-2,-8.644322E-2,1.329891E-1,2.8438883E0,1.1803927E-1,-5.3001113E-2,4.969945E-2,3.8258255E-1,-9.324556E-2,-3.8964834E-2,-1.07447445E-1,1.101776E-1,4.4861802E-1],"categories":[],"categories_nodes":[],"categories_segments":[],"categories_sizes":[],"default_left":[0,0,0,0,0,0,0,0,0,0,0,0,0,0,0,0,0,0,0,0,0,0,0,0,0,0,0,0,0,0,0,0,0,0,0,0,0,0,0,0,0,0,0,0,0,0,0,0,0,0,0,0,0,0,0,0,0,0,0,0,0,0,0,0,0,0,0],"id":4,"left_children":[1,3,5,7,9,11,-1,13,15,17,19,21,23,25,27,29,31,33,35,37,39,-1,-1,-1,-1,41,43,45,47,49,51,53,-1,55,57,-1,59,61,63,65,-1,-1,-1,-1,-1,-1,-1,-1,-1,-1,-1,-1,-1,-1,-1,-1,-1,-1,-1,-1,-1,-1,-1,-1,-1,-1,-1],"loss_changes":[1.4245805E5,8.262722E2,6.6644585E6,1.8471191E2,6.01675E2,1.0286723E5,0E0,3.1818707E2,2.4314893E2,8.8517194E2,5.2619336E2,7.8471375E-1,1.3299361E5,1.2778792E2,8.447352E2,2.5010547E2,1.2876395E3,1.7890348E3,1.8105774E0,4.334789E2,3.0339856E2,0E0,0E0,0E0,0E0,8.450213E1,1.3431244E1,4.216734E4,9.244492E0,9.03291E1,4.5436322E2,2.729275E4,0E0,1.25462E2,9.631536E3,0E0,1.0864881E0,2.222349E2,1.14578E2,3.0390424E2,0E0,0E0,0E0,0E0,0E0,0E0,0E0,0E0,0E0,0E0,0E0,0E0,0E0,0E0,0E0,0E0,0E0,0E0,0E0,0E0,0E0,0E0,0E0,0E0,0E0,0E0,0E0],"parents":[2147483647,0,0,1,1,2,2,3,3,4,4,5,5,7,7,8,8,9,9,10,10,11,11,12,12,13,13,14,14,15,15,16,16,17,17,18,18,19,19,20,20,25,25,26,26,27,27,28,28,29,29,30,30,31,31,33,33,34,34,36,36,37,37,38,38,39,39],"right_children":[2,4,6,8,10,12,-1,14,16,18,20,22,24,26,28,30,32,34,36,38,40,-1,-1,-1,-1,42,44,46,48,50,52,54,-1,56,58,-1,60,62,64,66,-1,-1,-1,-1,-1,-1,-1,-1,-1,-1,-1,-1,-1,-1,-1,-1,-1,-1,-1,-1,-1,-1,-1,-1,-1,-1,-1],"split_conditions":[7.95478E5,4.06E2,3.69154E5,2.1E1,5.424923E4,1.950254E5,-1.812414E2,5.0095E4,6.003352E4,4.0754E2,2.14154E5,9E0,1.4658019E6,8E0,1.0633585E5,5.0095E4,4.0754E2,1.6115E4,3.4922284E5,5.962317E4,4.0754E2,-8.317139E-3,-9.792894E-2,-7.6873355E-2,-3.0093647E1,1.006915E4,5.2563E2,4.0754E2,8E0,2.152E3,3.648309E4,4.77635E3,-9.993539E-2,7.33E2,1.56674E5,-9.9284194E-2,3.8885E4,4.0754E2,2.1133194E5,4.2579028E5,-9.809984E-2,-2.0506615E-2,4.4039628E-1,8.889447E-2,-8.46174E-2,-1.4058992E1,-9.883265E-2,9.4943486E-2,-8.7001465E-2,-9.779882E-2,-6.3727476E-2,-4.087154E-1,-5.8542043E-2,1.1109309E1,3.624737E-2,-8.644322E-2,1.329891E-1,2.8438883E0,1.1803927E-1,-5.3001113E-2,4.969945E-2,3.8258255E-1,-9.324556E-2,-3.8964834E-2,-1.07447445E-1,1.101776E-1,4.4861802E-1],"split_indices":[1,0,2,0,5,2,0,2,2,3,2,0,1,0,5,2,3,2,1,1,3,0,0,0,0,1,1,3,0,2,5,5,0,2,2,0,2,3,1,2,0,0,0,0,0,0,0,0,0,0,0,0,0,0,0,0,0,0,0,0,0,0,0,0,0,0,0],"split_type":[0,0,0,0,0,0,0,0,0,0,0,0,0,0,0,0,0,0,0,0,0,0,0,0,0,0,0,0,0,0,0,0,0,0,0,0,0,0,0,0,0,0,0,0,0,0,0,0,0,0,0,0,0,0,0,0,0,0,0,0,0,0,0,0,0,0,0],"sum_hessian":[7.496467E3,7.351193E3,1.4527382E2,5.794143E3,1.5570499E3,1.4420085E2,1.072967E0,5.343769E2,5.259766E3,3.2584122E2,1.2312087E3,1.3921878E2,4.98207E0,3.0175092E2,2.32626E2,3.3713538E3,1.8884121E3,2.0982484E2,1.1601637E2,1.0255552E3,2.0565346E2,1.1798656E0,1.3803891E2,3.3114996E0,1.6705705E0,1.4741741E1,2.8700916E2,7.9831436E1,1.5279456E2,3.2217695E3,1.4958421E2,5.8477014E2,1.303642E3,1.16880875E2,9.294397E1,1.1388732E2,2.1290476E0,4.522163E1,9.803336E2,1.56286E2,4.9367466E1,7.787923E0,6.953819E0,3.7625384E0,2.832466E2,1.2254012E0,7.860604E1,2.0647163E0,1.5072984E2,1.8759796E3,1.34579E3,6.639541E1,8.318881E1,1.234491E0,5.8353564E2,7.92972E1,3.7583668E1,1.4554085E1,7.8389885E1,1.125631E0,1.0034168E0,3.1671846E1,1.3549784E1,5.0257776E2,4.7775583E2,1.2305613E2,3.3229866E1],"tree_param":{"num_deleted":"0","num_feature":"6","num_nodes":"67","size_leaf_vector":"1"}},{"base_weights":[-2.783748E-1,-5.9231395E-1,1.6742016E1,-7.547158E-1,-8.035889E-2,-4.6987953E0,1.2919165E2,-6.010857E-1,-9.993659E-2,-2.5676984E-1,1.1037866E0,-9.693796E-1,-1.6648384E1,-8.3591783E-1,4.2407572E-1,1.7946728E-1,-7.549555E-1,1.8080596E0,-9.48397E-1,-7.904186E-3,-9.770095E-2,-7.5476605E-1,-2.5268767E0,1.5212238E1,-1.8347396E-1,-4.465821E-2,2.276298E0,-1.0562131E0,1.2940572E-1,6.0273314E-1,1.7200897E0,-9.8201245E-2,-4.2387566E-1,-8.290175E-2,6.760206E-2,-1.2625937E1,-4.4164006E-2,9.188479E0,6.8678063E-1,-1.2211833E1,2.3344295E-2,1.8163256E-2,-1.0329806E-1,6.218466E-1,1.04225196E-1,-7.4302696E-2,-1.06356315E-1,1.5380244E-1,-1.0321348E-1,8.303367E-2,2.0252727E-1,4.983142E-2,-7.624974E-2],"categories":[],"categories_nodes":[],"categories_segments":[],"categories_sizes":[],"default_left":[0,0,0,0,0,0,0,0,0,0,0,0,0,0,0,0,0,0,0,0,0,0,0,0,0,0,0,0,0,0,0,0,0,0,0,0,0,0,0,0,0,0,0,0,0,0,0,0,0,0,0,0,0],"id":5,"left_children":[1,3,5,7,9,11,-1,13,-1,15,17,19,-1,21,23,25,27,29,31,-1,-1,33,35,37,39,41,43,45,47,-1,49,-1,51,-1,-1,-1,-1,-1,-1,-1,-1,-1,-1,-1,-1,-1,-1,-1,-1,-1,-1,-1,-1],"loss_changes":[3.8478293E4,5.877446E2,3.5718288E6,2.0112671E2,3.5618326E2,7.78287E4,0E0,7.946459E2,0E0,3.2256668E2,3.2126135E2,7.8790283E-1,0E0,3.6650977E2,5.533535E3,3.722097E2,1.8471924E2,5.0856323E1,5.913429E-1,0E0,0E0,2.7287585E2,3.1555936E4,1.4918557E4,3.0138072E4,1.603909E2,3.6558E2,3.996582E-1,2.91079E2,0E0,4.2573242E1,0E0,2.004159E0,0E0,0E0,0E0,0E0,0E0,0E0,0E0,0E0,0E0,0E0,0E0,0E0,0E0,0E0,0E0,0E0,0E0,0E0,0E0,0E0],"parents":[2147483647,0,0,1,1,2,2,3,3,4,4,5,5,7,7,9,9,10,10,11,11,13,13,14,14,15,15,16,16,17,17,18,18,21,21,22,22,23,23,24,24,25,25,26,26,27,27,28,28,30,30,32,32],"right_children":[2,4,6,8,10,12,-1,14,-1,16,18,20,-1,22,24,26,28,30,32,-1,-1,34,36,38,40,42,44,46,48,-1,50,-1,52,-1,-1,-1,-1,-1,-1,-1,-1,-1,-1,-1,-1,-1,-1,-1,-1,-1,-1,-1,-1],"split_conditions":[7.95478E5,4.06E2,2.78049E5,4.0754E2,2.6623E5,1.950254E5,1.2919165E2,7.3466E4,-9.993659E-2,1.6264019E5,4.0754E2,9E0,-1.6648384E1,5.0095E4,1.2919301E5,1.08077E5,1.6673444E5,4.16E2,3.4922284E5,-7.904186E-3,-9.770095E-2,3.0774E4,6.306438E4,9.786015E4,1.1949292E5,1.0771922E5,1.1506314E5,1.6708442E5,2.6097977E5,6.0273314E-1,3.21248E5,-9.8201245E-2,2.7106375E5,-8.290175E-2,6.760206E-2,-1.2625937E1,-4.4164006E-2,9.188479E0,6.8678063E-1,-1.2211833E1,2.3344295E-2,1.8163256E-2,-1.0329806E-1,6.218466E-1,1.04225196E-1,-7.4302696E-2,-1.06356315E-1,1.5380244E-1,-1.0321348E-1,8.303367E-2,2.0252727E-1,4.983142E-2,-7.624974E-2],"split_indices":[1,0,2,3,2,2,0,2,0,1,3,0,0,2,1,2,2,0,1,0,0,2,5,5,5,1,5,1,1,0,2,0,5,0,0,0,0,0,0,0,0,0,0,0,0,0,0,0,0,0,0,0,0],"split_type":[0,0,0,0,0,0,0,0,0,0,0,0,0,0,0,0,0,0,0,0,0,0,0,0,0,0,0,0,0,0,0,0,0,0,0,0,0,0,0,0,0,0,0,0,0,0,0,0,0,0,0,0,0],"sum_hessian":[7.1982764E3,7.068857E3,1.2941907E2,5.366141E3,1.702716E3,1.2825883E2,1.1602316E0,3.2983633E3,2.0677778E3,1.482622E3,2.2009404E2,1.263522E2,1.9066374E0,2.683779E3,6.1458435E2,7.9079803E2,6.918239E2,1.6394872E2,5.614533E1,1.170117E0,1.2518208E2,2.5622585E3,1.2152047E2,2.330427E1,5.9128E2,7.15318E2,7.548002E1,5.1589124E2,1.7593271E2,1.9695175E0,1.6197919E2,5.194413E1,4.201196E0,2.4362488E3,1.26009865E2,1.0270795E0,1.2049339E2,1.3046867E0,2.1999582E1,1.0201179E0,5.9025995E2,5.827135E2,1.326045E2,1.7032024E1,5.8447998E1,1.4170499E1,5.017207E2,7.9363365E1,9.6569336E1,4.2319263E1,1.19659935E2,1.0016754E0,3.1995208E0],"tree_param":{"num_deleted":"0","num_feature":"6","num_nodes":"53","size_leaf_vector":"1"}},{"base_weights":[-1.1918308E0,-6.3603836E-1,-1.4843536E1,-8.2080346E-1,-7.803208E-2,2.941459E1,-1.7110226E1,-1.109313E0,-6.2203294E-1,-2.413028E-1,9.8200285E-1,-3.1030615E1,-1.5849113E0,-8.405416E-1,-6.464396E0,-8.8236374E-1,-3.0663824E-1,1.5426716E-1,-7.3578495E-1,1.5588402E0,-9.432439E-1,-9.660555E-1,-1.4911734E2,-6.0486884E0,2.060411E1,-7.0373875E-1,-2.69863E0,-6.0572094E-1,-1.1317049E1,-3.7093335E-1,-9.825208E-1,3.2019773E-1,-9.976104E-2,-5.9038896E-2,1.5883002E0,-1.0491091E0,1.13824174E-1,3.036643E0,1.3596526E0,-9.800218E-2,-4.0275678E-1,-3.571414E-1,-9.828129E-2,-6.293919E2,-5.352475E1,-1.292054E-1,-1.5335988E1,-1.2355137E-1,8.863523E1,-8.356104E-2,7.616033E-2,-3.8558617E0,-9.852121E-2,9.301634E-3,-9.364895E-2,-2.1061409E0,-9.637252E-2,-9.024315E-2,4.329409E-2,-3.5491914E-2,-9.8393366E-2,8.1265974E-1,2.3468286E-2,1.4754585E-2,-1.0449207E-1,2.800321E-1,-9.731322E-2,-7.156589E-2,-1.0572549E-1,1.2967248E-1,-1.0135565E-1,1.0300311E-1,4.1506377E-1,-8.42533E-2,1.805826E-1,4.9562987E-2,-7.513496E-2,1.2799415E-2,-6.6761255E-2,-1.0683372E2,-2.1054663E1,-3.0585007E1,-2.7836106E0,-2.2419786E0,-1.3487837E0,-2.1525967E0,1.5073421E1],"categories":[],"categories_nodes":[],"categories_segments":[],"categories_sizes":[],"default_left":[0,0,0,0,0,0,0,0,0,0,0,0,0,0,0,0,0,0,0,0,0,0,0,0,0,0,0,0,0,0,0,0,0,0,0,0,0,0,0,0,0,0,0,0,0,0,0,0,0,0,0,0,0,0,0,0,0,0,0,0,0,0,0,0,0,0,0,0,0,0,0,0,0,0,0,0,0,0,0,0,0,0,0,0,0,0,0],"id":6,"left_children":[1,3,5,7,9,-1,11,13,15,17,19,21,23,25,27,29,31,33,35,37,39,41,43,45,47,49,51,53,55,57,59,61,-1,63,65,67,69,71,73,-1,75,77,-1,79,81,-1,83,-1,85,-1,-1,-1,-1,-1,-1,-1,-1,-1,-1,-1,-1,-1,-1,-1,-1,-1,-1,-1,-1,-1,-1,-1,-1,-1,-1,-1,-1,-1,-1,-1,-1,-1,-1,-1,-1,-1,-1],"loss_changes":[5.301935E4,6.9241724E2,1.9649003E5,2.886682E2,2.8959094E2,0E0,5.8803133E4,2.9551487E3,2.4520947E2,2.8364453E2,2.4949672E2,5.094015E5,1.2979931E4,4.962694E2,2.7837275E3,8.350476E1,5.8652893E2,2.4668056E2,1.7165906E2,4.656714E1,6.4115524E-1,8.2657623E-1,1.3031942E6,4.787718E3,3.2743098E4,3.536358E2,8.198131E3,1.0608862E1,5.390329E3,1.1564079E2,8.642578E-1,4.723373E2,0E0,1.4327505E2,3.268928E2,5.2233887E-1,2.340485E2,3.9639328E1,1.524213E2,0E0,1.9438041E0,7.876027E-1,0E0,6.466565E5,1.5598662E5,0E0,1.7895801E2,0E0,3.985211E4,0E0,0E0,0E0,0E0,0E0,0E0,0E0,0E0,0E0,0E0,0E0,0E0,0E0,0E0,0E0,0E0,0E0,0E0,0E0,0E0,0E0,0E0,0E0,0E0,0E0,0E0,0E0,0E0,0E0,0E0,0E0,0E0,0E0,0E0,0E0,0E0,0E0,0E0],"parents":[2147483647,0,0,1,1,2,2,3,3,4,4,6,6,7,7,8,8,9,9,10,10,11,11,12,12,13,13,14,14,15,15,16,16,17,17,18,18,19,19,20,20,21,21,22,22,23,23,24,24,25,25,26,26,27,27,28,28,29,29,30,30,31,31,33,33,34,34,35,35,36,36,37,37,38,38,40,40,41,41,43,43,44,44,46,46,48,48],"right_children":[2,4,6,8,10,-1,12,14,16,18,20,22,24,26,28,30,32,34,36,38,40,42,44,46,48,50,52,54,56,58,60,62,-1,64,66,68,70,72,74,-1,76,78,-1,80,82,-1,84,-1,86,-1,-1,-1,-1,-1,-1,-1,-1,-1,-1,-1,-1,-1,-1,-1,-1,-1,-1,-1,-1,-1,-1,-1,-1,-1,-1,-1,-1,-1,-1,-1,-1,-1,-1,-1,-1,-1,-1],"split_conditions":[7.95478E5,4.06E2,5.6852256E5,1.0206717E5,2.6623E5,2.941459E1,5.27095E5,7.607142E4,5.6683E4,1.6264019E5,4.0754E2,1.950254E5,1.8795555E6,1.6485552E5,7.3466E4,5.32718E4,4.0754E2,1.05369E5,1.6673444E5,3.154558E5,3.4922284E5,1.2E1,3.8977166E5,6.0476275E5,6.0476275E5,5.483565E4,4.0754E2,5.962317E4,4.0754E2,1.445E3,8E0,8.371068E4,-9.976104E-2,1.0582959E5,4.0754E2,1.6708442E5,2.6097977E5,4.77635E3,3.21248E5,-9.800218E-2,6.4391806E5,5E1,-9.828129E-2,7.174612E6,3.0932568E6,-1.292054E-1,2E1,-1.2355137E-1,2.8461715E6,-8.356104E-2,7.616033E-2,-3.8558617E0,-9.852121E-2,9.301634E-3,-9.364895E-2,-2.1061409E0,-9.637252E-2,-9.024315E-2,4.329409E-2,-3.5491914E-2,-9.8393366E-2,8.1265974E-1,2.3468286E-2,1.4754585E-2,-1.0449207E-1,2.800321E-1,-9.731322E-2,-7.156589E-2,-1.0572549E-1,1.2967248E-1,-1.0135565E-1,1.0300311E-1,4.1506377E-1,-8.42533E-2,1.805826E-1,4.9562987E-2,-7.513496E-2,1.2799415E-2,-6.6761255E-2,-1.0683372E2,-2.1054663E1,-3.0585007E1,-2.7836106E0,-2.2419786E0,-1.3487837E0,-2.1525967E0,1.5073421E1],"split_indices":[1,0,5,5,2,0,2,5,2,1,3,2,1,1,2,1,3,2,2,1,1,0,2,2,2,1,3,1,3,2,0,1,0,1,3,1,1,5,2,0,4,2,0,5,5,0,0,0,5,0,0,0,0,0,0,0,0,0,0,0,0,0,0,0,0,0,0,0,0,0,0,0,0,0,0,0,0,0,0,0,0,0,0,0,0,0,0],"split_type":[0,0,0,0,0,0,0,0,0,0,0,0,0,0,0,0,0,0,0,0,0,0,0,0,0,0,0,0,0,0,0,0,0,0,0,0,0,0,0,0,0,0,0,0,0,0,0,0,0,0,0,0,0,0,0,0,0,0,0,0,0,0,0,0,0,0,0,0,0,0,0,0,0,0,0,0,0,0,0,0,0,0,0,0,0,0,0],"sum_hessian":[6.9879536E3,6.715593E3,2.723607E2,5.044729E3,1.6708641E3,1.0456909E0,2.71315E2,2.0559697E3,2.9887593E3,1.4485284E3,2.2233566E2,1.4252487E2,1.2879013E2,1.9588138E3,9.715584E1,1.6363212E3,1.3524381E3,8.051345E2,6.43394E2,1.7122423E2,5.1111427E1,1.1440568E2,2.8119196E1,1.07826096E2,2.096403E1,1.8257693E3,1.3304457E2,4.4525005E1,5.263083E1,2.6874377E2,1.3675774E3,7.0941113E2,6.430269E2,7.017162E2,1.03418335E2,4.6987552E2,1.7351843E2,1.8645473E1,1.5257875E2,4.7093685E1,4.0177436E0,3.661728E0,1.1074395E2,3.740771E0,2.4378426E1,7.205906E1,3.576704E1,1.661277E1,4.3512597E0,1.6754215E3,1.5034772E2,5.086464E0,1.2795811E2,1.4536318E1,2.9988688E1,2.6579977E1,2.6050852E1,1.6170595E2,1.0703783E2,3.6381505E0,1.3639392E3,6.668107E0,7.0274304E2,5.808528E2,1.2086336E2,7.01374E1,3.3280937E1,1.332378E1,4.5655176E2,8.4600945E1,8.891749E1,7.343119E0,1.1302354E1,2.5555529E1,1.27023224E2,1.0052449E0,3.012499E0,1.658279E0,2.003449E0,1.06939E0,2.671381E0,1.2448558E0,2.313357E1,5.097573E0,3.0669466E1,1.8041416E0,2.547118E0],"tree_param":{"num_deleted":"0","num_feature":"6","num_nodes":"87","size_leaf_vector":"1"}},{"base_weights":[-1.0951337E0,-5.590982E-1,-9.695535E0,-3.7917638E-1,-9.9812694E-2,-2.3014643E1,-5.083691E0,-6.900246E-1,5.0040746E-1,-4.808508E0,-9.4797966E1,-3.158274E0,-2.1168568E1,-2.7675837E-1,-1.0556121E0,1.9653934E1,4.065674E-1,-1.89843E1,-9.617711E-1,-1.705978E0,-7.6723633E0,-2.0121974E2,-2.2857141E0,-4.4623137E-1,4.083075E0,2.390908E1,-1.151265E0,4.0432982E0,6.713881E0,4.3668876E0,1.5191144E-1,-3.2590464E-1,-9.805303E-2,-1.3845093E0,-3.6568072E0,-1.6291033E1,-1.520321E0,-1.7017113E-1,-3.0177366E1,-1.196706E1,-1.0764122E0,-3.468869E-2,-2.2998052E0,5.984661E0,9.764387E-2,-8.4235445E-2,8.4356985E0,-5.4106555E0,-1.0662794E-1,9.9614906E-1,3.2694432E-1,6.25835E0,1.5323631E-1,-6.8714775E-2,6.415095E-2,1.7713793E-2,-6.555788E-2,-6.797876E-1,-1.3123359E-1,-1.1072377E0,-1.4011729E-1,-1.0634118E1,-7.267112E-1,-1.2371578E-1,-3.0715096E-1,-3.3680942E-2,-1.8896474E0,9.036841E-2,-1.4298989E-1],"categories":[],"categories_nodes":[],"categories_segments":[],"categories_sizes":[],"default_left":[0,0,0,0,0,0,0,0,0,0,0,0,0,0,0,0,0,0,0,0,0,0,0,0,0,0,0,0,0,0,0,0,0,0,0,0,0,0,0,0,0,0,0,0,0,0,0,0,0,0,0,0,0,0,0,0,0,0,0,0,0,0,0,0,0,0,0,0,0],"id":7,"left_children":[1,3,5,7,-1,9,11,13,15,17,-1,19,21,23,25,27,29,-1,31,33,35,37,39,41,43,45,47,-1,49,51,53,55,-1,57,59,61,63,-1,-1,65,67,-1,-1,-1,-1,-1,-1,-1,-1,-1,-1,-1,-1,-1,-1,-1,-1,-1,-1,-1,-1,-1,-1,-1,-1,-1,-1,-1,-1],"loss_changes":[3.2169836E4,5.186587E2,2.503145E4,1.2751237E3,0E0,1.7639412E6,9.391268E3,5.2024976E2,2.181265E3,7.383923E4,0E0,1.782687E3,1.09945664E5,1.1977477E3,4.392169E3,1.3196118E3,1.2227882E3,0E0,9.0766144E-1,1.25713745E2,3.495404E3,6.1095625E4,3.4306085E2,3.48462E3,1.045027E4,1.0577787E4,8.1410195E3,0E0,2.163562E1,1.1992667E4,4.6910812E2,8.534694E-1,0E0,6.1654938E1,4.6776184E2,2.1613504E4,1.3700005E1,0E0,0E0,2.577369E2,2.0978214E1,0E0,0E0,0E0,0E0,0E0,0E0,0E0,0E0,0E0,0E0,0E0,0E0,0E0,0E0,0E0,0E0,0E0,0E0,0E0,0E0,0E0,0E0,0E0,0E0,0E0,0E0,0E0,0E0],"parents":[2147483647,0,0,1,1,2,2,3,3,5,5,6,6,7,7,8,8,9,9,11,11,12,12,13,13,14,14,15,15,16,16,18,18,19,19,20,20,21,21,22,22,23,23,24,24,25,25,26,26,28,28,29,29,30,30,31,31,33,33,34,34,35,35,36,36,39,39,40,40],"right_children":[2,4,6,8,-1,10,12,14,16,18,-1,20,22,24,26,28,30,-1,32,34,36,38,40,42,44,46,48,-1,50,52,54,56,-1,58,60,62,64,-1,-1,66,68,-1,-1,-1,-1,-1,-1,-1,-1,-1,-1,-1,-1,-1,-1,-1,-1,-1,-1,-1,-1,-1,-1,-1,-1,-1,-1,-1,-1],"split_conditions":[7.95478E5,4.0754E2,3.69154E5,1.08077E5,-9.9812694E-2,1.6673444E5,7.0541306E5,8.031837E4,1.1736856E5,8.4326675E5,-9.4797966E1,2.1070138E6,1.1376032E6,5.3752E4,4.77635E3,1.8095533E5,1.5604728E5,-1.89843E1,1.2E1,3.0932568E6,5.27095E5,1.2384236E5,2.01533E6,5.0095E4,6.740626E4,3.1702E4,3.648309E4,4.0432982E0,4.83E2,1.2384236E5,2.06945E5,3.2297922E6,-9.805303E-2,6.2106444E5,2.83332E6,6.3266625E6,6.0476275E5,-1.7017113E-1,-3.0177366E1,3.0755534E5,6.343502E5,-3.468869E-2,-2.2998052E0,5.984661E0,9.764387E-2,-8.4235445E-2,8.4356985E0,-5.4106555E0,-1.0662794E-1,9.9614906E-1,3.2694432E-1,6.25835E0,1.5323631E-1,-6.8714775E-2,6.415095E-2,1.7713793E-2,-6.555788E-2,-6.797876E-1,-1.3123359E-1,-1.1072377E0,-1.4011729E-1,-1.0634118E1,-7.267112E-1,-1.2371578E-1,-3.0715096E-1,-3.3680942E-2,-1.8896474E0,9.036841E-2,-1.4298989E-1],"split_indices":[1,3,2,2,0,2,2,1,1,5,0,4,2,2,5,5,1,0,0,5,2,5,2,2,5,2,5,0,0,5,2,5,0,5,1,5,2,0,0,5,4,0,0,0,0,0,0,0,0,0,0,0,0,0,0,0,0,0,0,0,0,0,0,0,0,0,0,0,0],"split_type":[0,0,0,0,0,0,0,0,0,0,0,0,0,0,0,0,0,0,0,0,0,0,0,0,0,0,0,0,0,0,0,0,0,0,0,0,0,0,0,0,0,0,0,0,0,0,0,0,0,0,0,0,0,0,0,0,0,0,0,0,0,0,0,0,0,0,0,0,0],"sum_hessian":[6.9782656E3,6.569853E3,4.084129E2,4.661394E3,1.908459E3,1.04017555E2,3.0439536E2,3.4443596E3,1.2170342E3,1.0299548E2,1.022067E0,2.7292197E2,3.1473381E1,1.6175786E3,1.8267811E3,4.9173717E0,1.2121168E3,1.1128701E0,1.01882614E2,2.0753172E2,6.539025E1,2.0708895E0,2.9402493E1,1.5579177E3,5.9660854E1,6.0224056E0,1.8207587E3,1.0717405E0,3.8456314E0,7.225677E1,1.1398601E3,3.4460974E0,9.8436516E1,1.7963942E2,2.7892305E1,2.6548796E1,3.8841454E1,1.034724E0,1.0361655E0,2.2770667E0,2.7125425E1,1.5520958E3,5.8218575E0,2.1845462E0,5.7476307E1,4.9724255E0,1.0499803E0,1.8988729E0,1.8188599E3,1.0055196E0,2.8401117E0,2.3761165E0,6.988065E1,4.1987933E2,7.199807E2,1.5474957E0,1.8986017E0,1.137444E0,1.7850198E2,5.593729E0,2.2298576E1,1.4358647E0,2.5112932E1,3.4365692E1,4.475761E0,1.2416688E0,1.0353979E0,3.8731332E0,2.3252293E1],"tree_param":{"num_deleted":"0","num_feature":"6","num_nodes":"69","size_leaf_vector":"1"}},{"base_weights":[-7.7234787E-1,-5.9431803E-1,-3.6246288E0,-7.66142E-1,-7.028734E-2,-4.6188827E0,5.4837613E0,-9.5760393E-1,-3.9987677E-1,-2.5320515E-1,7.024552E-1,-2.478586E0,-3.6266227E0,3.1322777E1,8.4378175E-2,-5.7440525E-1,-1.27399E0,2.843295E-1,-9.971709E-2,5.0430845E-2,-1.0550692E-1,1.0205301E0,-9.3982667E-1,-1.2142832E0,-7.2891817E0,1.0373008E1,-1.18205264E-1,-1.0693926E0,1.445495E0,-9.406143E-1,-1.8334621E-1,-2.3600469E0,-8.989697E-1,1.1989345E1,1.5213634E-1,-1.01848036E-1,1.2720935E0,1.4993309E0,3.8630474E-1,-9.7891435E-2,-3.3977956E-1,-9.252599E-1,-1.2755129E-1,-9.6407604E-1,-1.144741E1,-1.4381576E-1,5.621612E-1,2.3924322E0,-2.5855129E0,3.0930901E-2,-9.8095804E-2,1.3598834E-1,-9.9843495E-2,-1.1179254E0,-2.0516077E-1,-9.792675E-2,-3.115565E-2,2.951356E-1,1.5475172E0,1.81108E-1,-1.5420037E-2,1.7247662E-2,-1.07251324E-1,1.6913006E-1,-9.426431E-2,4.4694462E-1,1.4213382E-1,-8.1710005E-4,1.5307403E-1,4.9662028E-2,-7.176723E-2,-5.9352852E-3,-9.488997E-2,-2.9683908E-2,-9.8168805E-2,-4.266629E0,-7.841056E-1,7.197072E-2,7.3483295E-4,1.0433658E0,2.626094E-2,-1.2951645E-1,-1.4498891E0],"categories":[],"categories_nodes":[],"categories_segments":[],"categories_sizes":[],"default_left":[0,0,0,0,0,0,0,0,0,0,0,0,0,0,0,0,0,0,0,0,0,0,0,0,0,0,0,0,0,0,0,0,0,0,0,0,0,0,0,0,0,0,0,0,0,0,0,0,0,0,0,0,0,0,0,0,0,0,0,0,0,0,0,0,0,0,0,0,0,0,0,0,0,0,0,0,0,0,0,0,0,0,0],"id":8,"left_children":[1,3,5,7,9,11,13,15,17,19,21,-1,23,25,27,29,31,33,-1,35,-1,37,39,41,43,-1,45,47,-1,49,51,53,55,57,59,61,63,65,67,-1,69,71,-1,73,75,-1,77,79,81,-1,-1,-1,-1,-1,-1,-1,-1,-1,-1,-1,-1,-1,-1,-1,-1,-1,-1,-1,-1,-1,-1,-1,-1,-1,-1,-1,-1,-1,-1,-1,-1,-1,-1],"loss_changes":[3.4160022E3,5.7054956E2,3.6049424E3,3.342754E2,2.2151564E2,7.0522944E3,5.4883887E3,3.791416E2,6.704978E2,3.0851547E2,1.5766237E2,0E0,3.0070796E3,1.5493127E4,5.718604E2,2.0301813E2,6.965625E2,1.1821189E3,0E0,1.712618E2,0E0,7.5881714E1,8.2120514E-1,2.4830322E0,3.5488228E3,0E0,5.9634585E0,1.7411299E2,0E0,3.723871E1,8.659924E2,1.1731074E3,5.991626E1,2.2312988E2,3.8530002E2,2.1823167E2,9.632231E1,2.6802887E1,4.9519894E1,0E0,1.7914326E0,7.589607E-1,0E0,3.523178E-1,8.849231E3,0E0,3.8863957E-1,1.7304596E2,3.306516E2,0E0,0E0,0E0,0E0,0E0,0E0,0E0,0E0,0E0,0E0,0E0,0E0,0E0,0E0,0E0,0E0,0E0,0E0,0E0,0E0,0E0,0E0,0E0,0E0,0E0,0E0,0E0,0E0,0E0,0E0,0E0,0E0,0E0,0E0],"parents":[2147483647,0,0,1,1,2,2,3,3,4,4,5,5,6,6,7,7,8,8,9,9,10,10,12,12,13,13,14,14,15,15,16,16,17,17,19,19,21,21,22,22,23,23,24,24,26,26,27,27,29,29,30,30,31,31,32,32,33,33,34,34,35,35,36,36,37,37,38,38,40,40,41,41,43,43,44,44,46,46,47,47,48,48],"right_children":[2,4,6,8,10,12,14,16,18,20,22,-1,24,26,28,30,32,34,-1,36,-1,38,40,42,44,-1,46,48,-1,50,52,54,56,58,60,62,64,66,68,-1,70,72,-1,74,76,-1,78,80,82,-1,-1,-1,-1,-1,-1,-1,-1,-1,-1,-1,-1,-1,-1,-1,-1,-1,-1,-1,-1,-1,-1,-1,-1,-1,-1,-1,-1,-1,-1,-1,-1,-1,-1],"split_conditions":[7.95478E5,4.06E2,7.6864756E5,9.407E4,2.14154E5,5.6852256E5,8.2822644E5,5.023053E4,4.0754E2,2.1133194E5,4.0754E2,-2.478586E0,3.0932568E6,2.966971E6,4.06E2,1.666E3,9.786015E4,1.0963665E5,-9.971709E-2,1.3014331E5,-1.0550692E-1,2.6134939E5,3.4922284E5,1.6673444E5,1.6673444E5,1.0373008E1,2.83332E6,1.1376032E6,1.445495E0,5.2563E2,4.0754E2,5.483565E4,5.2675E4,9.7573E4,4.77635E3,1.2919301E5,4.0754E2,4.16E2,4.06163E5,-9.7891435E-2,6.535194E5,1.1E1,-1.2755129E-1,1.2E1,4.06163E5,-1.4381576E-1,9.14211E6,3.9804832E6,5.599999E5,3.0930901E-2,-9.8095804E-2,1.3598834E-1,-9.9843495E-2,-1.1179254E0,-2.0516077E-1,-9.792675E-2,-3.115565E-2,2.951356E-1,1.5475172E0,1.81108E-1,-1.5420037E-2,1.7247662E-2,-1.07251324E-1,1.6913006E-1,-9.426431E-2,4.4694462E-1,1.4213382E-1,-8.1710005E-4,1.5307403E-1,4.9662028E-2,-7.176723E-2,-5.9352852E-3,-9.488997E-2,-2.9683908E-2,-9.8168805E-2,-4.266629E0,-7.841056E-1,7.197072E-2,7.3483295E-4,1.0433658E0,2.626094E-2,-1.2951645E-1,-1.4498891E0],"split_indices":[1,0,2,2,2,5,4,1,3,1,3,0,5,5,0,2,5,1,0,2,0,4,1,2,2,0,1,2,0,1,3,1,2,2,5,1,3,0,2,0,4,0,0,0,2,0,2,5,5,0,0,0,0,0,0,0,0,0,0,0,0,0,0,0,0,0,0,0,0,0,0,0,0,0,0,0,0,0,0,0,0,0,0],"split_type":[0,0,0,0,0,0,0,0,0,0,0,0,0,0,0,0,0,0,0,0,0,0,0,0,0,0,0,0,0,0,0,0,0,0,0,0,0,0,0,0,0,0,0,0,0,0,0,0,0,0,0,0,0,0,0,0,0,0,0,0,0,0,0,0,0,0,0,0,0,0,0,0,0,0,0,0,0,0,0,0,0,0,0],"sum_hessian":[6.7304224E3,6.3361494E3,3.9427292E2,4.771247E3,1.5649025E3,3.5591486E2,3.835807E1,3.1322673E3,1.6389795E3,1.2659166E3,2.989859E2,1.5566091E1,3.4034875E2,5.8001223E0,3.255795E1,1.4178362E3,1.7144313E3,7.6415564E2,8.7482385E2,9.189004E2,3.4701617E2,2.5079153E2,4.8194374E1,2.059992E2,1.3434955E2,1.0599352E0,4.740187E0,3.0995033E1,1.5629153E0,7.3145575E2,6.8638043E2,4.386911E2,1.2757401E3,7.5320964E0,7.5662354E2,8.178704E2,1.0102999E2,1.4212897E2,1.08662575E2,4.4654163E1,3.5402107E0,3.882835E1,1.6717085E2,5.3778538E1,8.0571014E1,1.23344E0,3.506747E0,9.264041E0,2.1730993E1,2.2662525E1,7.087932E2,2.3699776E2,4.4938266E2,1.3633168E1,4.2505795E2,1.1217349E3,1.5400523E2,2.610448E0,4.9216485E0,1.1717251E2,6.3945105E2,6.3829956E2,1.795708E2,8.514922E1,1.5880768E1,2.1959782E0,1.3993298E2,8.154698E1,2.711559E1,1.003953E0,2.5362577E0,1.1251634E0,3.770319E1,1.8421545E0,5.1936382E1,7.221994E0,7.334902E1,2.4997149E0,1.0070324E0,1.1234763E0,8.140565E0,2.0607672E1,1.1233202E0],"tree_param":{"num_deleted":"0","num_feature":"6","num_nodes":"83","size_leaf_vector":"1"}},{"base_weights":[-7.230777E-1,-6.121379E-1,-4.322294E0,-8.1712186E-1,1.066206E-2,-1.7208936E0,-7.2210293E0,-7.367228E-1,-2.147472E0,-6.6816635E-2,1.1605303E1,-3.1587856E0,-1.3305068E0,-9.4455653E-1,-1.1112596E1,-9.3389535E-1,-3.6013693E-1,-2.83357E0,6.6806664E0,-2.0946147E-1,7.739122E-1,-2.3385336E0,6.47454E0,-3.371167E0,-9.0194985E-2,-1.1880344E0,-5.5788267E-1,-9.3851555E-3,-9.715559E-2,-4.6243504E1,-7.6435537E0,-5.510727E-1,-1.2633348E0,3.302311E-1,-9.9675365E-2,-1.9724586E0,-6.636428E0,7.4683623E0,-1.23786524E-1,-5.6544133E-3,-1.0310088E0,1.1323423E0,-9.244953E-1,-1.2374717E-1,-4.704524E-1,-2.9384172E-1,-5.37667E-1,-1.985324E-2,-1.20414615E-1,-1.2073562E0,-6.550898E0,-2.441623E1,-4.095233E0,-9.3466096E-2,-1.7351586E-2,-6.536247E-1,-1.1751729E-1,2.3572253E-1,-1.7067187E-3,-3.3200896E-1,-1.24155246E-1,-3.497809E-1,-1.3713025E0,-2.243927E-2,5.6541573E-2,-1.05418615E-1,-2.4899831E-2,1.4805995E-1,5.981484E-2,-9.728649E-2,-3.127496E-2,-4.184076E0,-3.59945E-1,-8.76924E-1,-7.023146E-2],"categories":[],"categories_nodes":[],"categories_segments":[],"categories_sizes":[],"default_left":[0,0,0,0,0,0,0,0,0,0,0,0,0,0,0,0,0,0,0,0,0,0,0,0,0,0,0,0,0,0,0,0,0,0,0,0,0,0,0,0,0,0,0,0,0,0,0,0,0,0,0,0,0,0,0,0,0,0,0,0,0,0,0,0,0,0,0,0,0,0,0,0,0,0,0],"id":9,"left_children":[1,3,5,7,9,11,13,15,17,19,21,23,25,27,29,31,33,35,37,39,41,43,-1,45,-1,47,-1,-1,-1,49,51,53,55,57,-1,59,61,-1,-1,63,65,67,69,-1,-1,-1,-1,-1,-1,-1,-1,71,73,-1,-1,-1,-1,-1,-1,-1,-1,-1,-1,-1,-1,-1,-1,-1,-1,-1,-1,-1,-1,-1,-1],"loss_changes":[2.5637437E3,7.961548E2,1.4355623E3,5.0026758E2,1.3889504E3,5.3341705E1,2.2001763E3,3.2831323E2,1.6353878E3,1.8436877E2,7.7561455E3,7.1023865E0,4.3217285E1,7.295437E-1,6.443879E3,3.6560376E2,6.695403E2,8.00121E2,1.0616019E4,2.2000433E2,1.3681323E2,1.78717E1,0E0,6.7025757E-1,0E0,1.0514908E0,0E0,0E0,0E0,2.3785127E3,2.9924304E3,1.9465186E2,7.176521E2,5.1481586E2,0E0,1.9672339E2,9.6099927E2,0E0,0E0,1.31764E2,4.471222E0,3.3457947E1,8.620148E-1,0E0,0E0,0E0,0E0,0E0,0E0,0E0,0E0,3.0672827E3,6.9302814E2,0E0,0E0,0E0,0E0,0E0,0E0,0E0,0E0,0E0,0E0,0E0,0E0,0E0,0E0,0E0,0E0,0E0,0E0,0E0,0E0,0E0,0E0],"parents":[2147483647,0,0,1,1,2,2,3,3,4,4,5,5,6,6,7,7,8,8,9,9,10,10,11,11,12,12,13,13,14,14,15,15,16,16,17,17,18,18,19,19,20,20,21,21,23,23,25,25,29,29,30,30,31,31,32,32,33,33,35,35,36,36,39,39,40,40,41,41,42,42,51,51,52,52],"right_children":[2,4,6,8,10,12,14,16,18,20,22,24,26,28,30,32,34,36,38,40,42,44,-1,46,-1,48,-1,-1,-1,50,52,54,56,58,-1,60,62,-1,-1,64,66,68,70,-1,-1,-1,-1,-1,-1,-1,-1,72,74,-1,-1,-1,-1,-1,-1,-1,-1,-1,-1,-1,-1,-1,-1,-1,-1,-1,-1,-1,-1,-1,-1],"split_conditions":[1.2159621E6,4.06E2,3.0932568E6,7.123984E5,7.95478E5,1.1406946E6,1.6673444E5,9.407E4,7.6864756E5,2.6623E5,6.513389E5,9.56619E3,6.513389E5,1.2E1,3.69154E5,5.023053E4,4.0754E2,3.0932568E6,2.1886545E6,2.6097977E5,4.0754E2,3.1440838E6,6.47454E0,1.05369E5,-9.0194985E-2,5E1,-5.5788267E-1,-9.3851555E-3,-9.715559E-2,2.57E2,1.8795555E6,1.666E3,5.483565E4,4.77635E3,-9.9675365E-2,6.1193E5,4.2579028E5,7.4683623E0,-1.23786524E-1,6.12E2,2.5677619E5,2.6134939E5,3.4922284E5,-1.2374717E-1,-4.704524E-1,-2.9384172E-1,-5.37667E-1,-1.985324E-2,-1.20414615E-1,-1.2073562E0,-6.550898E0,5.645389E5,2.83332E6,-9.3466096E-2,-1.7351586E-2,-6.536247E-1,-1.1751729E-1,2.3572253E-1,-1.7067187E-3,-3.3200896E-1,-1.24155246E-1,-3.497809E-1,-1.3713025E0,-2.243927E-2,5.6541573E-2,-1.05418615E-1,-2.4899831E-2,1.4805995E-1,5.981484E-2,-9.728649E-2,-3.127496E-2,-4.184076E0,-3.59945E-1,-8.76924E-1,-7.023146E-2],"split_indices":[1,0,5,1,1,5,2,2,2,2,2,3,2,0,2,1,3,5,3,1,3,4,0,2,0,2,0,0,0,0,1,2,1,5,0,5,2,0,0,0,2,4,1,0,0,0,0,0,0,0,0,2,1,0,0,0,0,0,0,0,0,0,0,0,0,0,0,0,0,0,0,0,0,0,0],"split_type":[0,0,0,0,0,0,0,0,0,0,0,0,0,0,0,0,0,0,0,0,0,0,0,0,0,0,0,0,0,0,0,0,0,0,0,0,0,0,0,0,0,0,0,0,0,0,0,0,0,0,0,0,0,0,0,0,0,0,0,0,0,0,0,0,0,0,0,0,0,0,0,0,0,0,0],"sum_hessian":[6.4262817E3,6.2352603E3,1.9102133E2,4.6909893E3,1.5442708E3,1.0151385E2,8.950749E1,4.425114E3,2.6587564E2,1.5350077E3,9.263122E0,2.0161736E1,8.135211E1,3.4732403E1,5.477509E1,2.9034487E3,1.5216652E3,2.4733267E2,1.8542974E1,1.3129867E3,2.2202103E2,8.095005E0,1.168117E0,1.7976303E1,2.185432E0,7.995052E1,1.4015855E0,1.2061055E0,3.3526295E1,3.81458E0,5.0960506E1,1.3441555E3,1.5592932E3,7.302449E2,7.914202E2,2.0290578E2,4.4426895E1,1.0546162E0,1.7488358E1,1.0528145E3,2.601722E2,1.8360625E2,3.8414783E1,6.563548E0,1.5314564E0,1.6813456E1,1.1628486E0,1.4943961E0,7.845613E1,1.961784E0,1.8527961E0,7.87148E0,4.3089027E1,6.660202E2,6.781353E2,2.4439524E1,1.5348536E3,1.0596963E2,6.2427527E2,7.010503E1,1.3280077E2,3.181192E1,1.2614975E1,7.616753E2,2.9113913E2,2.5234514E2,7.827064E0,1.1007402E2,7.353223E1,3.5052906E1,3.3618782E0,3.7350938E0,4.136386E0,1.745662E1,2.563241E1],"tree_param":{"num_deleted":"0","num_feature":"6","num_nodes":"75","size_leaf_vector":"1"}},{"base_weights":[-7.318512E-1,-6.0157E-1,-3.919874E0,-8.018178E-1,-3.204466E-2,-1.5157611E0,-8.261337E0,-7.175507E-1,-2.126102E0,-1.7947106E-1,9.3729544E-1,-2.7662911E0,-1.166379E0,-9.455528E-1,-1.3382062E1,-9.1803503E-1,-3.4977663E-1,-1.6735235E0,-5.032602E0,-3.6971964E-2,-1.06880106E-1,1.3264141E0,-1.0295849E0,-2.9747887E0,-1.03256464E-1,-1.3369066E0,6.63126E-1,-4.1075335E-3,-9.721685E-2,-2.2408504E1,-1.8583052E0,-5.241231E-1,-1.2758323E0,2.9105422E-1,-9.9634424E-2,-2.499635E0,-1.128482E0,-7.358142E0,-5.5382264E-1,-1.256593E-1,1.153268E0,8.40364E-1,2.202753E0,-9.0987957E-1,-2.4469793E-1,-2.4791424E-1,-8.228712E-1,-1.1582102E0,-3.202546E-1,-4.625474E-1,1.7370049E0,-4.2403008E1,-1.1024447E1,-5.5097513E0,-6.983197E-1,-9.396567E-2,-1.6175048E-2,-1.1192044E0,-1.17587306E-1,2.5796434E-1,-4.4013266E-3,-2.7282318E-1,-1.1913923E-1,-1.714742E-1,-8.394229E-2,-3.382997E-1,-4.546345E0,-2.2638395E-1,6.6964126E-1,8.85529E-3,-9.042526E-2,1.3966538E-1,-8.9173615E-2,1.5317638E-1,-1.468042E-1,1.75966E-1,4.6384636E-1,-9.682218E-2,-4.5525925E-3,-3.314846E-2,-1.1831994E-1,1.30189E-1,2.7689686E-1,-4.0804592E-1,-1.7151535E1,-4.52379E0,-1.0710307E-1,-1.3877898E-1,-1.1267443E0,-2.0613582E-1,1.410168E-1],"categories":[],"categories_nodes":[],"categories_segments":[],"categories_sizes":[],"default_left":[0,0,0,0,0,0,0,0,0,0,0,0,0,0,0,0,0,0,0,0,0,0,0,0,0,0,0,0,0,0,0,0,0,0,0,0,0,0,0,0,0,0,0,0,0,0,0,0,0,0,0,0,0,0,0,0,0,0,0,0,0,0,0,0,0,0,0,0,0,0,0,0,0,0,0,0,0,0,0,0,0,0,0,0,0,0,0,0,0,0,0],"id":10,"left_children":[1,3,5,7,9,11,13,15,17,19,21,23,25,27,29,31,33,35,37,39,-1,41,43,45,-1,47,49,-1,-1,51,53,55,57,59,-1,61,63,65,67,69,71,73,75,77,-1,-1,-1,79,-1,-1,81,83,85,87,89,-1,-1,-1,-1,-1,-1,-1,-1,-1,-1,-1,-1,-1,-1,-1,-1,-1,-1,-1,-1,-1,-1,-1,-1,-1,-1,-1,-1,-1,-1,-1,-1,-1,-1,-1,-1],"loss_changes":[2.5539822E3,6.744839E2,2.507742E3,4.86781E2,2.2018593E2,6.520813E1,3.2028428E3,3.0312598E2,3.3526E2,1.6942072E2,1.5704195E2,9.029053E0,3.9621063E1,8.367615E-1,5.202497E3,3.746433E2,6.025669E2,9.964526E1,3.5738434E2,1.2191321E2,0E0,7.066498E1,3.569046E0,5.6030945E1,0E0,3.426384E1,7.1951385E1,0E0,0E0,5.946955E3,9.456645E1,1.9095917E2,1.369314E3,5.6051624E2,0E0,2.3556335E1,2.2104492E1,3.293976E3,1.756177E2,1.7928343E2,4.110901E1,1.7961005E2,5.6723633E1,1.6245651E0,0E0,0E0,0E0,1.7875977E0,0E0,0E0,9.220581E-1,4.814846E4,6.5267383E3,1.1386307E2,5.6874756E1,0E0,0E0,0E0,0E0,0E0,0E0,0E0,0E0,0E0,0E0,0E0,0E0,0E0,0E0,0E0,0E0,0E0,0E0,0E0,0E0,0E0,0E0,0E0,0E0,0E0,0E0,0E0,0E0,0E0,0E0,0E0,0E0,0E0,0E0,0E0,0E0],"parents":[2147483647,0,0,1,1,2,2,3,3,4,4,5,5,6,6,7,7,8,8,9,9,10,10,11,11,12,12,13,13,14,14,15,15,16,16,17,17,18,18,19,19,21,21,22,22,23,23,25,25,26,26,29,29,30,30,31,31,32,32,33,33,35,35,36,36,37,37,38,38,39,39,40,40,41,41,42,42,43,43,47,47,50,50,51,51,52,52,53,53,54,54],"right_children":[2,4,6,8,10,12,14,16,18,20,22,24,26,28,30,32,34,36,38,40,-1,42,44,46,-1,48,50,-1,-1,52,54,56,58,60,-1,62,64,66,68,70,72,74,76,78,-1,-1,-1,80,-1,-1,82,84,86,88,90,-1,-1,-1,-1,-1,-1,-1,-1,-1,-1,-1,-1,-1,-1,-1,-1,-1,-1,-1,-1,-1,-1,-1,-1,-1,-1,-1,-1,-1,-1,-1,-1,-1,-1,-1,-1],"split_conditions":[1.03783594E6,4.06E2,3.0932568E6,7.123984E5,3.0901447E5,6.682829E5,1.6673444E5,9.115421E4,3.0932568E6,3.1052688E5,4.0754E2,2.052852E4,1.01160625E6,3.2297922E6,5.27095E5,5.023053E4,4.0754E2,6.1193E5,5.27095E5,2.06945E5,-1.06880106E-1,5.27095E5,4.470326E5,1.08077E5,-1.03256464E-1,7.6864756E5,3.8E1,-4.1075335E-3,-9.721685E-2,2.83332E6,1.8E1,1.02E3,5.483565E4,4.77635E3,-9.9634424E-2,2.1886545E6,7.95478E5,3.8977166E5,7.95478E5,1.8572361E5,4.0754E2,5.1395006E5,1.667442E6,3.4922284E5,-2.4469793E-1,-2.4791424E-1,-8.228712E-1,5E1,-3.202546E-1,-4.625474E-1,5.2239744E5,3.5180478E5,4.2579028E5,9.1720225E5,1.01160625E6,-9.396567E-2,-1.6175048E-2,-1.1192044E0,-1.17587306E-1,2.5796434E-1,-4.4013266E-3,-2.7282318E-1,-1.1913923E-1,-1.714742E-1,-8.394229E-2,-3.382997E-1,-4.546345E0,-2.2638395E-1,6.6964126E-1,8.85529E-3,-9.042526E-2,1.3966538E-1,-8.9173615E-2,1.5317638E-1,-1.468042E-1,1.75966E-1,4.6384636E-1,-9.682218E-2,-4.5525925E-3,-3.314846E-2,-1.1831994E-1,1.30189E-1,2.7689686E-1,-4.0804592E-1,-1.7151535E1,-4.52379E0,-1.0710307E-1,-1.3877898E-1,-1.1267443E0,-2.0613582E-1,1.410168E-1],"split_indices":[1,0,5,1,2,5,2,2,5,1,3,3,2,5,2,1,3,5,2,2,0,2,1,2,0,2,0,0,0,1,0,2,1,5,0,3,1,2,1,1,3,1,5,1,0,0,0,2,0,0,4,2,2,2,2,0,0,0,0,0,0,0,0,0,0,0,0,0,0,0,0,0,0,0,0,0,0,0,0,0,0,0,0,0,0,0,0,0,0,0,0],"split_type":[0,0,0,0,0,0,0,0,0,0,0,0,0,0,0,0,0,0,0,0,0,0,0,0,0,0,0,0,0,0,0,0,0,0,0,0,0,0,0,0,0,0,0,0,0,0,0,0,0,0,0,0,0,0,0,0,0,0,0,0,0,0,0,0,0,0,0,0,0,0,0,0,0,0,0,0,0,0,0,0,0,0,0,0,0,0,0,0,0,0,0],"sum_hessian":[6.15382E3,5.913354E3,2.4046555E2,4.3747603E3,1.538594E3,1.556323E2,8.4833244E1,4.1144883E3,2.6027197E2,1.3361886E3,2.0240535E2,3.247568E1,1.2315662E2,3.5417816E1,4.9415424E1,2.6619082E3,1.4525798E3,2.2656825E2,3.370373E1,1.1525542E3,1.8363446E2,1.6924776E2,3.3157585E1,2.8350431E1,4.1252503E0,1.1290228E2,1.0254333E1,1.085134E0,3.4332684E1,2.7180592E1,2.2234833E1,1.2681837E3,1.3937246E3,7.298025E2,7.227774E2,8.863671E1,1.3793153E2,2.1761503E1,1.194223E1,1.0734626E3,7.909158E1,1.1012647E2,5.9121292E1,3.2089428E1,1.0681581E0,2.7251442E1,1.0989904E0,1.0451258E2,8.389707E0,1.1725487E0,9.081784E0,8.872507E0,1.8308084E1,4.456537E0,1.7778297E1,5.900167E2,6.7816693E2,1.2801656E1,1.380923E3,9.234763E1,6.3745483E2,7.45285E1,1.4108211E1,4.3920776E1,9.401076E1,2.0691723E1,1.0697801E0,1.0219621E1,1.7226101E0,8.425425E2,2.3092012E2,7.096298E1,8.128606E0,8.500325E1,2.5123222E1,5.1478924E1,7.642366E0,2.994784E1,2.1415892E0,3.4849186E0,1.01027664E2,7.979071E0,1.1027125E0,7.637255E0,1.235252E0,3.3270075E0,1.4981078E1,3.320445E0,1.1360916E0,1.0811512E1,6.9667845E0],"tree_param":{"num_deleted":"0","num_feature":"6","num_nodes":"91","size_leaf_vector":"1"}},{"base_weights":[-6.7721796E-1,-5.9090626E-1,-3.690613E0,-7.989844E-1,-2.2883266E-2,-2.0568519E0,-8.969027E0,-6.975529E-1,-2.027901E0,-1.6646793E-1,8.784439E-1,-1.5962205E0,-3.2369425E0,-9.3579516E-2,-1.3860847E1,-8.960652E-1,-3.3114916E-1,-1.5437672E0,-4.909693E0,-3.4520723E-2,-1.0624298E-1,1.2059038E0,-1.0322596E0,-1.4627972E0,-4.9396105E0,-8.698334E-1,-4.899321E0,-4.2323322E1,-6.351075E0,-5.00767E-1,-1.2693888E0,2.850292E-1,-9.958232E-2,-2.2565906E0,-1.1065375E0,-7.0234475E0,-1.4103767E-1,7.235285E-2,-9.926865E-2,7.997526E-1,2.263393E0,-9.0043867E-1,-2.375418E-1,-2.4558213E0,-1.1494079E0,-6.9959897E-1,-5.6023676E-2,-2.8456969E-3,-9.302724E-2,-7.295471E0,-5.751231E-1,-4.7394043E-1,-8.855746E0,-1.7150913E1,-5.364526E-1,-9.796312E-2,-1.869475E-2,-2.5654857E0,-1.1597335E-1,2.580607E-1,-1.1040943E-3,-2.4310175E-1,-1.1682814E-1,-1.2811115E-1,-2.4996927E-2,-3.088785E-1,-4.871305E0,-2.0950572E-1,4.366983E-1,6.223922E-2,-1.8308854E-2,1.14534795E-1,-1.8767084E-1,1.6633491E-1,1.0558009E0,-9.65006E-2,7.241241E-3,-2.127728E-1,-4.2217213E-1,-1.7326146E-2,-1.1670114E-1,-1.6588598E0,-2.9378438E-1,-9.564358E-2,3.6544587E-2,-4.1147604E0,-4.8598272E-1,-1.03873014E-1,7.899625E-2],"categories":[],"categories_nodes":[],"categories_segments":[],"categories_sizes":[],"default_left":[0,0,0,0,0,0,0,0,0,0,0,0,0,0,0,0,0,0,0,0,0,0,0,0,0,0,0,0,0,0,0,0,0,0,0,0,0,0,0,0,0,0,0,0,0,0,0,0,0,0,0,0,0,0,0,0,0,0,0,0,0,0,0,0,0,0,0,0,0,0,0,0,0,0,0,0,0,0,0,0,0,0,0,0,0,0,0,0,0],"id":11,"left_children":[1,3,5,7,9,11,13,15,17,19,21,23,25,-1,27,29,31,33,35,37,-1,39,41,43,45,47,49,51,53,55,57,59,-1,61,63,65,67,69,-1,71,73,75,-1,77,79,-1,-1,-1,-1,81,83,-1,-1,85,87,-1,-1,-1,-1,-1,-1,-1,-1,-1,-1,-1,-1,-1,-1,-1,-1,-1,-1,-1,-1,-1,-1,-1,-1,-1,-1,-1,-1,-1,-1,-1,-1,-1,-1],"loss_changes":[1.5150659E3,6.704059E2,1.3806936E3,5.1606934E2,1.9709341E2,6.288684E1,1.482304E3,2.7875122E2,4.3329724E2,1.5524846E2,1.3218407E2,3.3822617E1,1.3021887E2,0E0,4.770685E3,3.664906E2,5.530747E2,8.2279236E1,4.5252893E2,1.17420395E2,0E0,7.5121155E1,3.3776894E0,2.5156967E1,2.4092697E1,7.523222E-1,2.0158469E2,7.8263467E3,1.2361516E3,1.8164597E2,3.3897036E3,4.7659525E2,0E0,1.6608093E1,2.5184052E1,4.9598833E3,1.3986183E2,1.450977E2,0E0,1.2328423E2,2.2710313E2,1.9532566E0,0E0,3.0034256E0,1.0044479E0,0E0,0E0,0E0,0E0,4.6529956E2,3.2785473E0,0E0,0E0,1.8375653E3,1.0096605E1,0E0,0E0,0E0,0E0,0E0,0E0,0E0,0E0,0E0,0E0,0E0,0E0,0E0,0E0,0E0,0E0,0E0,0E0,0E0,0E0,0E0,0E0,0E0,0E0,0E0,0E0,0E0,0E0,0E0,0E0,0E0,0E0,0E0,0E0],"parents":[2147483647,0,0,1,1,2,2,3,3,4,4,5,5,6,6,7,7,8,8,9,9,10,10,11,11,12,12,14,14,15,15,16,16,17,17,18,18,19,19,21,21,22,22,23,23,24,24,25,25,26,26,27,27,28,28,29,29,30,30,31,31,33,33,34,34,35,35,36,36,37,37,39,39,40,40,41,41,43,43,44,44,49,49,50,50,53,53,54,54],"right_children":[2,4,6,8,10,12,14,16,18,20,22,24,26,-1,28,30,32,34,36,38,-1,40,42,44,46,48,50,52,54,56,58,60,-1,62,64,66,68,70,-1,72,74,76,-1,78,80,-1,-1,-1,-1,82,84,-1,-1,86,88,-1,-1,-1,-1,-1,-1,-1,-1,-1,-1,-1,-1,-1,-1,-1,-1,-1,-1,-1,-1,-1,-1,-1,-1,-1,-1,-1,-1,-1,-1,-1,-1,-1,-1],"split_conditions":[1.2159621E6,4.06E2,6.5790035E6,7.123984E5,3.0901447E5,3.0932568E6,1.6673444E5,9.407E4,3.0932568E6,3.1052688E5,4.0754E2,9.1720225E5,4.2579028E5,-9.3579516E-2,3.69154E5,5.023053E4,4.0754E2,6.1193E5,5.27095E5,4.0754E2,-1.0624298E-1,6.0476275E5,4.2310728E5,5.599999E5,1.63E2,1.8E1,2.83332E6,2.06E2,2.83332E6,1.19E2,5.483565E4,4.77635E3,-9.958232E-2,2.1886545E6,9.1720225E5,4.2579028E5,7.95478E5,3.648309E4,-9.926865E-2,6.0344306E5,2.2612922E6,3.4922284E5,-2.375418E-1,9.9569E4,5E1,-6.9959897E-1,-5.6023676E-2,-2.8456969E-3,-9.302724E-2,2.1070138E6,3.2412405E6,-4.7394043E-1,-8.855746E0,5.27095E5,3.2412405E6,-9.796312E-2,-1.869475E-2,-2.5654857E0,-1.1597335E-1,2.580607E-1,-1.1040943E-3,-2.4310175E-1,-1.1682814E-1,-1.2811115E-1,-2.4996927E-2,-3.088785E-1,-4.871305E0,-2.0950572E-1,4.366983E-1,6.223922E-2,-1.8308854E-2,1.14534795E-1,-1.8767084E-1,1.6633491E-1,1.0558009E0,-9.65006E-2,7.241241E-3,-2.127728E-1,-4.2217213E-1,-1.7326146E-2,-1.1670114E-1,-1.6588598E0,-2.9378438E-1,-9.564358E-2,3.6544587E-2,-4.1147604E0,-4.8598272E-1,-1.03873014E-1,7.899625E-2],"split_indices":[1,0,5,1,2,5,2,2,5,1,3,2,2,0,2,1,3,5,2,3,0,2,1,5,0,0,1,0,1,2,1,5,0,3,2,2,1,5,0,1,5,1,0,2,2,0,0,0,0,4,2,0,0,2,2,0,0,0,0,0,0,0,0,0,0,0,0,0,0,0,0,0,0,0,0,0,0,0,0,0,0,0,0,0,0,0,0,0,0],"split_type":[0,0,0,0,0,0,0,0,0,0,0,0,0,0,0,0,0,0,0,0,0,0,0,0,0,0,0,0,0,0,0,0,0,0,0,0,0,0,0,0,0,0,0,0,0,0,0,0,0,0,0,0,0,0,0,0,0,0,0,0,0,0,0,0,0,0,0,0,0,0,0,0,0,0,0,0,0,0,0,0,0,0,0,0,0,0,0,0,0],"sum_hessian":[5.8325195E3,5.6712754E3,1.6124434E2,4.150469E3,1.5208059E3,1.2419385E2,3.705049E1,3.8354678E3,3.150016E2,1.3125304E3,2.0827551E2,9.1018654E1,3.31752E1,1.4473597E1,2.2576897E1,2.4867415E3,1.3487263E3,2.710085E2,4.399305E1,1.144953E3,1.6757732E2,1.7811816E2,3.015735E1,8.890815E1,2.1105022E0,1.4314959E1,1.886024E1,3.7454932E0,1.8831404E1,1.2089606E3,1.277781E3,7.001923E2,6.48534E2,1.01450645E2,1.6955788E2,3.01541E1,1.3838948E1,1.0308921E3,1.1406097E2,1.2996039E2,4.8157776E1,2.898325E1,1.1740997E0,1.9687819E1,6.922033E1,1.0295706E0,1.0809318E0,1.057952E0,1.3257007E1,1.1693463E1,7.166778E0,2.6741636E0,1.0713296E0,5.9081793E0,1.29232235E1,4.7778156E2,7.31179E2,4.67727E0,1.2731036E3,7.910855E1,6.2108374E2,8.637353E1,1.5077121E1,1.4043974E2,2.9118135E1,2.8535053E1,1.6190468E0,1.0027673E1,3.8112755E0,3.2647034E2,7.0442175E2,1.15605064E2,1.4355322E1,4.602854E1,2.1292336E0,2.7186941E1,1.7963097E0,1.8462498E1,1.2253208E0,1.4182492E0,6.780208E1,2.8368232E0,8.85664E0,5.087431E0,2.0793471E0,1.2059548E0,4.7022247E0,9.530986E0,3.3922374E0],"tree_param":{"num_deleted":"0","num_feature":"6","num_nodes":"89","size_leaf_vector":"1"}},{"base_weights":[-6.422618E-1,-5.8570135E-1,-5.129162E0,-7.959493E-1,-2.5685752E-2,-2.2758992E0,-1.00801115E1,-6.7370003E-1,-1.8881571E0,-1.9951826E-1,6.118465E-1,-2.7703784E0,-6.6801673E-1,-2.0017069E1,-3.1951563E0,-9.627682E-1,-4.0836662E-1,-1.4687245E0,-3.4827938E0,4.1010067E-2,-1.0457226E-1,8.06166E-1,-1.029147E0,-1.6252714E0,-4.9039245E0,-1.0403546E-1,2.9396474E-1,-8.897679E-2,-9.641815E0,-9.306345E0,-5.6116647E-1,-6.124957E-1,-1.6588E0,-8.291229E-1,-1.0055381E-1,-2.1072235E0,-1.0849947E0,-9.460067E-2,-4.1419144E0,-1.18802905E-1,1.0496374E0,4.8234475E-1,1.9027009E0,-9.107663E-1,-2.3951899E-1,-1.1970147E-1,-5.4046386E-1,-1.1968011E0,-2.8621008E0,6.381122E-2,-2.2182869E-2,-1.3070107E0,-3.5923731E0,-1.056116E-1,7.602025E-2,-2.861487E-2,-9.9859454E-2,-1.4318603E0,-1.4286005E-1,2.3832028E-3,-9.68165E-2,3.547319E-2,-9.949466E-2,-2.2412057E-1,-1.1434658E-1,-1.21242896E-1,-3.2358047E-2,-5.222835E-1,-9.895509E-2,1.3006905E-2,-1.07606255E-1,3.593593E-1,5.3557016E-2,8.3475545E-2,-1.4047953E-1,1.4210223E-1,4.542218E-1,-9.6905336E-2,1.1935598E-2,-1.644426E-1,-6.0314703E-1,-4.2513138E-1,-1.1408319E-1],"categories":[],"categories_nodes":[],"categories_segments":[],"categories_sizes":[],"default_left":[0,0,0,0,0,0,0,0,0,0,0,0,0,0,0,0,0,0,0,0,0,0,0,0,0,0,0,0,0,0,0,0,0,0,0,0,0,0,0,0,0,0,0,0,0,0,0,0,0,0,0,0,0,0,0,0,0,0,0,0,0,0,0,0,0,0,0,0,0,0,0,0,0,0,0,0,0,0,0,0,0,0,0],"id":12,"left_children":[1,3,5,7,9,11,13,15,17,19,21,23,25,27,29,31,33,35,37,39,-1,41,43,45,47,-1,49,-1,-1,51,53,55,57,59,61,63,65,-1,67,69,71,73,75,77,-1,-1,-1,-1,79,-1,-1,-1,81,-1,-1,-1,-1,-1,-1,-1,-1,-1,-1,-1,-1,-1,-1,-1,-1,-1,-1,-1,-1,-1,-1,-1,-1,-1,-1,-1,-1,-1,-1],"loss_changes":[1.410093E3,6.4756006E2,9.5443274E2,5.326406E2,1.6661128E2,3.4073593E1,1.6466943E3,2.755514E2,2.6373352E2,2.4045581E2,1.03542015E2,7.568033E1,4.584357E0,1.4591633E4,2.5168425E2,4.185946E2,2.4309485E2,7.611267E1,1.3482788E2,1.4853557E2,0E0,1.01545654E2,3.404644E0,3.2013493E1,1.3107901E2,0E0,8.716355E-1,0E0,0E0,5.504843E1,8.793037E0,1.4417896E2,1.6569937E3,9.4086426E1,4.4236603E2,1.2810425E1,1.9200653E1,0E0,2.1825867E2,1.8969858E2,1.6289484E2,1.502196E2,7.67569E1,2.1212158E0,0E0,0E0,0E0,0E0,2.9471909E1,0E0,0E0,0E0,4.2029953E-1,0E0,0E0,0E0,0E0,0E0,0E0,0E0,0E0,0E0,0E0,0E0,0E0,0E0,0E0,0E0,0E0,0E0,0E0,0E0,0E0,0E0,0E0,0E0,0E0,0E0,0E0,0E0,0E0,0E0,0E0],"parents":[2147483647,0,0,1,1,2,2,3,3,4,4,5,5,6,6,7,7,8,8,9,9,10,10,11,11,12,12,13,13,14,14,15,15,16,16,17,17,18,18,19,19,21,21,22,22,23,23,24,24,26,26,29,29,30,30,31,31,32,32,33,33,34,34,35,35,36,36,38,38,39,39,40,40,41,41,42,42,43,43,48,48,52,52],"right_children":[2,4,6,8,10,12,14,16,18,20,22,24,26,28,30,32,34,36,38,40,-1,42,44,46,48,-1,50,-1,-1,52,54,56,58,60,62,64,66,-1,68,70,72,74,76,78,-1,-1,-1,-1,80,-1,-1,-1,82,-1,-1,-1,-1,-1,-1,-1,-1,-1,-1,-1,-1,-1,-1,-1,-1,-1,-1,-1,-1,-1,-1,-1,-1,-1,-1,-1,-1,-1,-1],"split_conditions":[1.8795555E6,4.06E2,7.174612E6,7.123984E5,2.14154E5,2.83332E6,3.69154E5,1.2384236E5,3.0932568E6,2.1133194E5,4.0754E2,3.0932568E6,6.513389E5,2.247386E4,2.83332E6,5.023053E4,3.5102E4,6.1193E5,2.78049E5,1.22142E5,-1.0457226E-1,5.27095E5,4.1249212E5,6.0476275E5,2.0322435E6,-1.0403546E-1,6.250048E5,-8.897679E-2,-9.641815E0,6.513389E5,3.2412405E6,4.0754E2,5.483565E4,3.288774E4,4.0754E2,2.1886545E6,9.1720225E5,-9.460067E-2,5.27095E5,1.2128913E5,4.77635E3,5.1395006E5,1.8082081E6,3.4922284E5,-2.3951899E-1,-1.1970147E-1,-5.4046386E-1,-1.1968011E0,6.3266625E6,6.381122E-2,-2.2182869E-2,-1.3070107E0,2.99E2,-1.056116E-1,7.602025E-2,-2.861487E-2,-9.9859454E-2,-1.4318603E0,-1.4286005E-1,2.3832028E-3,-9.68165E-2,3.547319E-2,-9.949466E-2,-2.2412057E-1,-1.1434658E-1,-1.21242896E-1,-3.2358047E-2,-5.222835E-1,-9.895509E-2,1.3006905E-2,-1.07606255E-1,3.593593E-1,5.3557016E-2,8.3475545E-2,-1.4047953E-1,1.4210223E-1,4.542218E-1,-9.6905336E-2,1.1935598E-2,-1.644426E-1,-6.0314703E-1,-4.2513138E-1,-1.1408319E-1],"split_indices":[1,0,5,1,2,1,2,5,5,1,3,5,2,2,1,1,2,5,2,2,0,2,1,2,4,0,4,0,0,2,2,3,1,1,3,3,2,0,2,1,5,1,5,1,0,0,0,0,5,0,0,0,0,0,0,0,0,0,0,0,0,0,0,0,0,0,0,0,0,0,0,0,0,0,0,0,0,0,0,0,0,0,0],"split_type":[0,0,0,0,0,0,0,0,0,0,0,0,0,0,0,0,0,0,0,0,0,0,0,0,0,0,0,0,0,0,0,0,0,0,0,0,0,0,0,0,0,0,0,0,0,0,0,0,0,0,0,0,0,0,0,0,0,0,0,0,0,0,0,0,0,0,0,0,0,0,0,0,0,0,0,0,0,0,0,0,0,0,0],"sum_hessian":[5.5671763E3,5.4989883E3,6.818795E1,3.997701E3,1.5012871E3,4.4184082E1,2.4003866E1,3.59674E3,4.0096106E2,1.1801807E3,3.211065E2,3.3238964E1,1.0945121E1,9.043766E0,1.49601E1,1.7201212E3,1.8766188E3,3.1898135E2,8.19797E1,9.1971027E2,2.604704E2,2.8756323E2,3.3543274E1,2.2776329E1,1.0462634E1,7.83218E0,3.1129405E0,8.042053E0,1.0017126E0,3.7429078E0,1.1217193E1,1.1455249E3,5.745963E2,7.921363E2,1.0844825E3,1.18054924E2,2.0092644E2,1.7409647E1,6.4570045E1,7.946788E2,1.2503146E2,2.2311446E2,6.444876E1,3.2402046E1,1.1412306E0,2.1640835E1,1.1354944E0,1.2559612E0,9.206673E0,1.7249042E0,1.3880364E0,1.4803896E0,2.2625182E0,8.30653E0,2.9106631E0,6.2174274E2,5.237821E2,9.168608E0,5.654277E2,1.1114498E2,6.8099133E2,7.1905493E2,3.6542755E2,1.024823E2,1.5572619E1,1.7161218E2,2.9314247E1,4.7593735E1,1.6976315E1,6.313914E2,1.6328737E2,2.0011314E1,1.0502015E2,1.8847557E2,3.463888E1,5.580366E1,8.6451E0,3.0722942E1,1.6791016E0,7.74853E0,1.4581431E0,1.2045993E0,1.057919E0],"tree_param":{"num_deleted":"0","num_feature":"6","num_nodes":"83","size_leaf_vector":"1"}},{"base_weights":[-6.030559E-1,-5.472553E-1,-4.920182E0,-7.47816E-1,-2.532878E-2,-2.140466E0,-8.144298E0,-6.336777E-1,-1.7581396E0,7.5567685E-2,-1.0154737E0,-5.187289E-1,-1.8372949E0,-1.3794074E1,-3.3217006E0,-8.350724E-1,-2.8299984E-1,-1.3944138E0,-3.0311131E0,-9.003051E-3,1.766755E0,-9.7907907E-1,-2.91831E-1,-2.0028934E0,4.1219205E-1,-8.905004E-2,-3.1003036E0,-8.004103E-1,-4.9240264E-1,-4.899341E-1,-1.3000718E0,2.3779961E-1,-9.9472836E-2,-1.9631603E0,-1.0419754E0,-1.8479015E0,-4.223781E0,5.245481E-1,-2.1516737E-1,1.3160414E0,4.2188644E0,-9.9366404E-2,-3.2634634E-1,-1.4238178E0,-2.8907433E0,5.7890844E-2,2.29865E-3,-9.983122E-2,7.72337E-2,3.7629124E-2,-6.718185E-2,-2.2207609E-1,-9.20436E-2,2.8063872E-1,-5.6045963E-3,-1.723609E-1,-2.8704438E-1,-1.7319255E-1,-8.74302E-2,-9.4090976E-2,-2.3122588E-1,-6.245907E-1,-9.42472E-2,-3.5834815E-2,1.0385827E0,2.9527065E-1,-3.0922104E-2,1.4006354E-1,5.502507E-2,2.4561016E-2,1.5239561E0,4.916617E-2,-7.096575E-2,-2.534903E-1,-1.1282053E-1,-4.5128542E-1,-1.3201413E-1],"categories":[],"categories_nodes":[],"categories_segments":[],"categories_sizes":[],"default_left":[0,0,0,0,0,0,0,0,0,0,0,0,0,0,0,0,0,0,0,0,0,0,0,0,0,0,0,0,0,0,0,0,0,0,0,0,0,0,0,0,0,0,0,0,0,0,0,0,0,0,0,0,0,0,0,0,0,0,0,0,0,0,0,0,0,0,0,0,0,0,0,0,0,0,0,0,0],"id":13,"left_children":[1,3,5,7,9,11,13,15,17,19,21,-1,23,25,27,29,31,33,35,37,39,41,-1,43,45,-1,-1,-1,47,49,51,53,-1,55,57,59,61,63,65,67,69,-1,71,73,75,-1,-1,-1,-1,-1,-1,-1,-1,-1,-1,-1,-1,-1,-1,-1,-1,-1,-1,-1,-1,-1,-1,-1,-1,-1,-1,-1,-1,-1,-1,-1,-1],"loss_changes":[1.2935226E3,5.561583E2,5.967947E2,4.415E2,1.4752956E2,2.571901E1,8.090403E2,2.434336E2,1.7590283E2,1.917279E2,6.6001587E0,0E0,1.4331299E1,3.1103208E3,2.3775046E2,3.510061E2,4.6733038E2,5.8977478E1,1.129978E2,1.4064426E2,6.500621E1,9.65744E-1,0E0,1.333403E1,2.0181477E-1,0E0,0E0,0E0,8.729259E0,1.986474E2,3.2400977E2,5.4999146E2,0E0,2.0121155E1,2.0476608E1,1.6671768E1,2.7182404E2,3.106353E3,2.7568524E2,2.817093E0,4.1045898E2,0E0,1.7444186E0,4.5345078E0,2.5703995E1,0E0,0E0,0E0,0E0,0E0,0E0,0E0,0E0,0E0,0E0,0E0,0E0,0E0,0E0,0E0,0E0,0E0,0E0,0E0,0E0,0E0,0E0,0E0,0E0,0E0,0E0,0E0,0E0,0E0,0E0,0E0,0E0],"parents":[2147483647,0,0,1,1,2,2,3,3,4,4,5,5,6,6,7,7,8,8,9,9,10,10,12,12,13,13,14,14,15,15,16,16,17,17,18,18,19,19,20,20,21,21,23,23,24,24,28,28,29,29,30,30,31,31,33,33,34,34,35,35,36,36,37,37,38,38,39,39,40,40,42,42,43,43,44,44],"right_children":[2,4,6,8,10,12,14,16,18,20,22,-1,24,26,28,30,32,34,36,38,40,42,-1,44,46,-1,-1,-1,48,50,52,54,-1,56,58,60,62,64,66,68,70,-1,72,74,76,-1,-1,-1,-1,-1,-1,-1,-1,-1,-1,-1,-1,-1,-1,-1,-1,-1,-1,-1,-1,-1,-1,-1,-1,-1,-1,-1,-1,-1,-1,-1,-1],"split_conditions":[1.8795555E6,4.06E2,6.3266625E6,7.123984E5,4.0754E2,1.1E1,3.69154E5,9.115421E4,3.0932568E6,5.27095E5,5.383058E5,-5.187289E-1,2.5124882E6,1.6673444E5,2.83332E6,8.031837E4,4.0754E2,6.1193E5,4.2579028E5,3.648309E4,1.8082081E6,3.4922284E5,-2.91831E-1,4.2923684E5,3.04E2,-8.905004E-2,-3.1003036E0,-8.004103E-1,3.2412405E6,1.29E2,9.786015E4,4.77635E3,-9.9472836E-2,2.78049E5,7.95478E5,2.78049E5,5.27095E5,5.2675E4,3.288774E4,1.03783594E6,6.513389E5,-9.9366404E-2,7.607142E4,1.3E2,2.0322435E6,5.7890844E-2,2.29865E-3,-9.983122E-2,7.72337E-2,3.7629124E-2,-6.718185E-2,-2.2207609E-1,-9.20436E-2,2.8063872E-1,-5.6045963E-3,-1.723609E-1,-2.8704438E-1,-1.7319255E-1,-8.74302E-2,-9.4090976E-2,-2.3122588E-1,-6.245907E-1,-9.42472E-2,-3.5834815E-2,1.0385827E0,2.9527065E-1,-3.0922104E-2,1.4006354E-1,5.502507E-2,2.4561016E-2,1.5239561E0,4.916617E-2,-7.096575E-2,-2.534903E-1,-1.1282053E-1,-4.5128542E-1,-1.3201413E-1],"split_indices":[1,0,5,1,3,0,2,2,5,2,1,0,2,2,1,1,3,5,2,5,5,1,0,4,0,0,0,0,2,0,5,5,0,2,1,2,2,2,1,1,2,0,5,0,4,0,0,0,0,0,0,0,0,0,0,0,0,0,0,0,0,0,0,0,0,0,0,0,0,0,0,0,0,0,0,0,0],"split_type":[0,0,0,0,0,0,0,0,0,0,0,0,0,0,0,0,0,0,0,0,0,0,0,0,0,0,0,0,0,0,0,0,0,0,0,0,0,0,0,0,0,0,0,0,0,0,0,0,0,0,0,0,0,0,0,0,0,0,0,0,0,0,0,0,0,0,0,0,0,0,0,0,0,0,0,0,0],"sum_hessian":[5.3797573E3,5.3122217E3,6.753588E1,3.837249E3,1.4749727E3,3.716094E1,3.0374937E1,3.4492117E3,3.8803732E2,1.3394095E3,1.3556308E2,1.9050794E0,3.525586E1,1.3131178E1,1.7243761E1,2.1900703E3,1.2591414E3,3.03433E2,8.460429E1,1.2765673E3,6.284227E1,1.34505E2,1.0580798E0,3.294053E1,2.3153331E0,8.105375E0,5.025802E0,5.806E0,1.143776E1,1.258226E3,9.318443E2,7.27481E2,5.3166034E2,1.14342705E2,1.8909033E2,4.375028E1,4.085401E1,3.5535858E2,9.212087E2,5.438302E1,8.459251E0,1.3105435E2,3.4506457E0,2.1512959E1,1.1427568E1,1.2797437E0,1.0355893E0,8.320234E0,3.117526E0,2.1816151E2,1.0400645E3,2.7064032E2,6.61204E2,7.380244E1,6.536785E2,9.27528E1,2.1589907E1,3.514497E1,1.5394536E2,1.583917E1,2.7911108E1,2.4717949E1,1.613606E1,3.270417E2,2.8316908E1,2.5685549E1,8.9552313E2,4.82266E1,6.156418E0,6.9690204E0,1.4902313E0,1.0108225E0,2.4398232E0,2.9289947E0,1.8583963E1,4.7000494E0,6.7275195E0],"tree_param":{"num_deleted":"0","num_feature":"6","num_nodes":"77","size_leaf_vector":"1"}},{"base_weights":[-5.580666E-1,-4.375238E-1,-1.6572051E0,-2.749053E-1,-9.956953E-2,-2.0892525E0,-2.7724436E-1,-5.321169E-1,4.073814E-1,-1.480959E0,-3.0232015E0,-9.9349344E-1,2.3225632E0,-7.049959E-2,-9.780408E-1,5.3285465E0,1.1354637E-1,-1.4190177E0,-7.6177794E-1,-2.149644E0,-4.565192E0,-5.995087E-1,-4.545052E0,1.1103138E0,1.5964116E0,-4.9486145E-1,1.4697124E0,-1.2991836E0,-2.1742904E-1,2.3677864E1,2.5314975E0,-2.1149342E0,2.8392208E-1,-1.8883437E0,-1.0931787E0,-9.269767E-1,-2.5798886E0,-1.3850567E1,-2.9734468E0,3.1940356E-1,-1.5557392E0,-1.0779078E1,2.7390808E-2,4.6581444E-1,1.22535266E-1,-9.597669E-2,3.735585E-3,8.384499E-1,1.0092374E-1,-3.5317913E-1,-1.0547036E-1,2.720513E0,-8.368721E-2,5.1781315E-1,4.2629185E0,8.2895464E-1,7.458566E-2,1.7373595E-2,-6.7776885E0,1.2003645E-2,2.5148094E-1,-1.6161697E-1,-1.2709662E0,-7.123244E-3,-1.1000121E-1,-5.695254E-3,-9.620574E-2,-2.1123253E-1,-2.8586003E-1,-3.0671222E0,-1.9557907E-1,-3.5172287E-1,-9.9884115E-2,-5.6566942E-2,1.771891E0,-1.6903542E-1,-1.0473587E-1,-7.521862E-2,-1.9902824E0,8.245657E-2,-1.6056837E-1,1.0091849E-1,-2.5522307E-2],"categories":[],"categories_nodes":[],"categories_segments":[],"categories_sizes":[],"default_left":[0,0,0,0,0,0,0,0,0,0,0,0,0,0,0,0,0,0,0,0,0,0,0,0,0,0,0,0,0,0,0,0,0,0,0,0,0,0,0,0,0,0,0,0,0,0,0,0,0,0,0,0,0,0,0,0,0,0,0,0,0,0,0,0,0,0,0,0,0,0,0,0,0,0,0,0,0,0,0,0,0,0,0],"id":14,"left_children":[1,3,5,7,-1,9,11,13,15,17,19,21,23,25,27,29,31,33,-1,35,37,39,41,43,-1,45,47,49,51,53,55,57,59,61,63,65,67,69,71,73,75,77,79,81,-1,-1,-1,-1,-1,-1,-1,-1,-1,-1,-1,-1,-1,-1,-1,-1,-1,-1,-1,-1,-1,-1,-1,-1,-1,-1,-1,-1,-1,-1,-1,-1,-1,-1,-1,-1,-1,-1,-1],"loss_changes":[6.818983E2,4.2128503E2,3.02792E2,6.3161536E2,0E0,2.1558606E2,2.3037341E2,5.378687E2,1.4245492E3,7.9102844E1,1.9469275E2,1.3261613E2,4.2470416E2,8.4069934E2,3.243866E2,2.7890388E3,3.5410693E2,3.3934204E1,0E0,4.958545E1,7.5715173E2,7.80123E1,2.7127295E2,1.3306141E0,0E0,2.4951598E2,8.762352E2,5.0628198E2,6.7459995E3,2.3114678E3,5.0057785E2,9.967156E3,3.1625113E2,2.595158E2,9.085083E-1,7.778187E-1,3.4131775E0,1.4668264E3,4.7365204E1,7.1558026E2,1.1997757E0,3.532383E2,9.761928E0,2.4114318E0,0E0,0E0,0E0,0E0,0E0,0E0,0E0,0E0,0E0,0E0,0E0,0E0,0E0,0E0,0E0,0E0,0E0,0E0,0E0,0E0,0E0,0E0,0E0,0E0,0E0,0E0,0E0,0E0,0E0,0E0,0E0,0E0,0E0,0E0,0E0,0E0,0E0,0E0,0E0],"parents":[2147483647,0,0,1,1,2,2,3,3,5,5,6,6,7,7,8,8,9,9,10,10,11,11,12,12,13,13,14,14,15,15,16,16,17,17,19,19,20,20,21,21,22,22,23,23,25,25,26,26,27,27,28,28,29,29,30,30,31,31,32,32,33,33,34,34,35,35,36,36,37,37,38,38,39,39,40,40,41,41,42,42,43,43],"right_children":[2,4,6,8,-1,10,12,14,16,18,20,22,24,26,28,30,32,34,-1,36,38,40,42,44,-1,46,48,50,52,54,56,58,60,62,64,66,68,70,72,74,76,78,80,82,-1,-1,-1,-1,-1,-1,-1,-1,-1,-1,-1,-1,-1,-1,-1,-1,-1,-1,-1,-1,-1,-1,-1,-1,-1,-1,-1,-1,-1,-1,-1,-1,-1,-1,-1,-1,-1,-1,-1],"split_conditions":[7.123984E5,4.0754E2,7.6864756E5,1.22142E5,-9.956953E-2,3.0932568E6,4.06E2,8.031837E4,1.5821498E5,6.513389E5,4.2579028E5,1.2159621E6,6.535194E5,2.1547E4,8.2475E4,4.77635E3,1.0633585E5,5.6852256E5,-7.6177794E-1,2.78049E5,1.03783594E6,4.0754E2,2.5124882E6,8.35904E5,1.5964116E0,1.19E2,1.29E2,7.178942E4,4.77635E3,1.27193E5,4.16E2,4.77635E3,5.27095E5,1.44667E5,9E0,1.3E1,1.4658019E6,5.27095E5,2.83332E6,6.834286E5,2.1886545E6,9.1720225E5,4.0754E2,9.1783444E5,1.22535266E-1,-9.597669E-2,3.735585E-3,8.384499E-1,1.0092374E-1,-3.5317913E-1,-1.0547036E-1,2.720513E0,-8.368721E-2,5.1781315E-1,4.2629185E0,8.2895464E-1,7.458566E-2,1.7373595E-2,-6.7776885E0,1.2003645E-2,2.5148094E-1,-1.6161697E-1,-1.2709662E0,-7.123244E-3,-1.1000121E-1,-5.695254E-3,-9.620574E-2,-2.1123253E-1,-2.8586003E-1,-3.0671222E0,-1.9557907E-1,-3.5172287E-1,-9.9884115E-2,-5.6566942E-2,1.771891E0,-1.6903542E-1,-1.0473587E-1,-7.521862E-2,-1.9902824E0,8.245657E-2,-1.6056837E-1,1.0091849E-1,-2.5522307E-2],"split_indices":[1,3,2,2,0,5,0,1,1,2,2,1,4,2,2,5,5,5,0,2,1,3,2,2,0,2,0,5,5,1,0,5,2,2,0,0,1,2,1,4,3,2,3,5,0,0,0,0,0,0,0,0,0,0,0,0,0,0,0,0,0,0,0,0,0,0,0,0,0,0,0,0,0,0,0,0,0,0,0,0,0,0,0],"split_type":[0,0,0,0,0,0,0,0,0,0,0,0,0,0,0,0,0,0,0,0,0,0,0,0,0,0,0,0,0,0,0,0,0,0,0,0,0,0,0,0,0,0,0,0,0,0,0,0,0,0,0,0,0,0,0,0,0,0,0,0,0,0,0,0,0,0,0,0,0,0,0,0,0,0,0,0,0,0,0,0,0,0,0],"sum_hessian":[5.1511367E3,4.6433027E3,5.078341E2,3.596876E3,1.0464266E3,3.863569E2,1.21477196E2,2.6122993E3,9.845766E2,2.3553532E2,1.5082158E2,9.572323E1,2.5753967E1,1.2841326E3,1.3281669E3,5.4509747E1,9.3006683E2,2.3440065E2,1.1346699E0,9.780682E1,5.301476E1,8.721681E1,8.506413E0,2.4645271E1,1.1086969E0,1.00728296E3,2.7684964E2,9.333732E2,3.9479358E2,6.222612E0,4.8287136E1,6.524619E1,8.648207E2,9.408658E1,1.4031409E2,2.6279741E1,7.1527084E1,6.631091E0,4.6383667E1,4.48159E1,4.2400917E1,3.0248969E0,5.481517E0,4.4974923E0,2.014778E1,5.372116E2,4.7007135E2,1.6210724E1,2.6063892E2,9.079365E1,8.425796E2,7.7728567E0,3.8702072E2,3.7931154E0,2.4294965E0,1.0567718E1,3.7719418E1,6.4012375E1,1.2338194E0,8.066186E2,5.8202072E1,9.289935E1,1.1872214E0,1.0078727E0,1.3930621E2,1.1202532E0,2.5159487E1,2.9917225E1,4.160986E1,2.092913E0,4.538178E0,3.5755753E1,1.0627916E1,4.3567223E1,1.2486752E0,3.16858E1,1.0715116E1,1.9568187E0,1.0680783E0,4.016145E0,1.4653716E0,2.3368356E0,2.1606565E0],"tree_param":{"num_deleted":"0","num_feature":"6","num_nodes":"83","size_leaf_vector":"1"}},{"base_weights":[-5.2507263E-1,-4.158376E-1,-1.5019499E0,-2.5915113E-1,-9.951521E-2,-1.8856335E0,-2.53087E-1,-5.060894E-1,3.5422942E-1,-1.8002623E0,-6.2242045E0,-9.397164E-1,2.2314317E0,-6.958631E-2,-9.527236E-1,4.2404084E0,9.998901E-2,-1.3797293E0,-2.349463E0,-1.004466E0,-3.6575406E0,-5.309853E-1,-5.067918E0,1.014004E0,1.5637745E0,-8.746813E-1,5.9213847E-1,-1.2719913E0,-2.1748252E-1,3.089589E1,1.7572653E0,-2.088789E0,2.5855023E-1,-1.7859261E0,-1.0746094E0,-9.2015976E-1,-2.5926197E0,-1.0394087E-1,-7.3337E-1,3.3855397E-1,-1.4922893E0,-1.3105625E1,1.40932305E-2,1.0825918E0,-1.1040504E-2,1.861348E-1,-9.64517E-2,2.9113087E-1,3.3075865E-2,-3.0778632E-1,-1.04764104E-1,1.9862441E0,-8.013456E-2,4.512705E-1,4.2917547E0,7.5410925E-2,4.5037532E-1,-2.0584097E-2,-2.7491515E0,1.1583559E-2,2.0579307E-1,-1.5234756E-1,-1.140652E0,-6.7853816E-3,-1.0821959E-1,-5.411414E-3,-9.58334E-2,-2.78764E-1,-1.9213292E-1,-4.9710143E-2,1.8793681E0,-1.6489519E-1,-1.0930248E-1,-1.8837212E0,-1.9607443E-1,8.096859E-2,-1.5814309E-1,5.531304E-2,1.1627964E-1],"categories":[],"categories_nodes":[],"categories_segments":[],"categories_sizes":[],"default_left":[0,0,0,0,0,0,0,0,0,0,0,0,0,0,0,0,0,0,0,0,0,0,0,0,0,0,0,0,0,0,0,0,0,0,0,0,0,0,0,0,0,0,0,0,0,0,0,0,0,0,0,0,0,0,0,0,0,0,0,0,0,0,0,0,0,0,0,0,0,0,0,0,0,0,0,0,0,0,0],"id":15,"left_children":[1,3,5,7,-1,9,11,13,15,17,19,21,23,25,27,29,31,33,35,-1,37,39,41,43,-1,45,47,49,51,53,55,57,59,61,63,65,67,-1,-1,69,71,73,75,77,-1,-1,-1,-1,-1,-1,-1,-1,-1,-1,-1,-1,-1,-1,-1,-1,-1,-1,-1,-1,-1,-1,-1,-1,-1,-1,-1,-1,-1,-1,-1,-1,-1,-1,-1],"loss_changes":[5.279099E2,4.0424072E2,2.3803601E2,5.3166675E2,0E0,1.2977405E2,2.0363809E2,4.8774982E2,9.9526697E2,8.329492E1,3.1295898E1,1.546756E2,4.064808E2,6.752559E2,2.900138E2,4.0399756E3,3.2916794E2,2.468097E1,5.3590942E1,0E0,4.7456573E1,7.237425E1,3.3861182E2,2.031475E0,0E0,1.4233142E2,4.2078992E2,3.4602612E2,4.419668E3,1.459106E3,1.55427E2,3.0590742E3,2.2672752E2,2.1126028E2,8.8183594E-1,7.735615E-1,1.2592102E1,0E0,0E0,7.1813135E2,7.6342773E-1,1.6813599E2,8.99165E0,3.5301208E-1,0E0,0E0,0E0,0E0,0E0,0E0,0E0,0E0,0E0,0E0,0E0,0E0,0E0,0E0,0E0,0E0,0E0,0E0,0E0,0E0,0E0,0E0,0E0,0E0,0E0,0E0,0E0,0E0,0E0,0E0,0E0,0E0,0E0,0E0,0E0],"parents":[2147483647,0,0,1,1,2,2,3,3,5,5,6,6,7,7,8,8,9,9,10,10,11,11,12,12,13,13,14,14,15,15,16,16,17,17,18,18,20,20,21,21,22,22,23,23,25,25,26,26,27,27,28,28,29,29,30,30,31,31,32,32,33,33,34,34,35,35,36,36,39,39,40,40,41,41,42,42,43,43],"right_children":[2,4,6,8,-1,10,12,14,16,18,20,22,24,26,28,30,32,34,36,-1,38,40,42,44,-1,46,48,50,52,54,56,58,60,62,64,66,68,-1,-1,70,72,74,76,78,-1,-1,-1,-1,-1,-1,-1,-1,-1,-1,-1,-1,-1,-1,-1,-1,-1,-1,-1,-1,-1,-1,-1,-1,-1,-1,-1,-1,-1,-1,-1,-1,-1,-1,-1],"split_conditions":[7.123984E5,4.0754E2,7.6864756E5,1.22142E5,-9.951521E-2,6.0476275E5,4.06E2,8.031837E4,1.5604728E5,3.0932568E6,7.95478E5,1.2159621E6,9.325623E5,1.445E3,8.2475E4,4.77635E3,1.0633585E5,5.6852256E5,2.78049E5,-1.004466E0,1.4658019E6,4.0754E2,2.5124882E6,5.382529E5,1.5637745E0,5.2563E2,1.29E2,7.178942E4,4.77635E3,1.2520978E5,1.39848E5,2.1839E3,5.27095E5,1.39848E5,9E0,1.3E1,1.522155E7,-1.0394087E-1,-7.3337E-1,5.9759944E5,1.4089855E6,1.83E2,4.0754E2,8.35904E5,-1.1040504E-2,1.861348E-1,-9.64517E-2,2.9113087E-1,3.3075865E-2,-3.0778632E-1,-1.04764104E-1,1.9862441E0,-8.013456E-2,4.512705E-1,4.2917547E0,7.5410925E-2,4.5037532E-1,-2.0584097E-2,-2.7491515E0,1.1583559E-2,2.0579307E-1,-1.5234756E-1,-1.140652E0,-6.7853816E-3,-1.0821959E-1,-5.411414E-3,-9.58334E-2,-2.78764E-1,-1.9213292E-1,-4.9710143E-2,1.8793681E0,-1.6489519E-1,-1.0930248E-1,-1.8837212E0,-1.9607443E-1,8.096859E-2,-1.5814309E-1,5.531304E-2,1.1627964E-1],"split_indices":[1,3,2,2,0,2,0,1,1,5,1,1,4,2,2,5,5,5,2,0,1,3,2,4,0,1,0,5,5,1,2,4,2,2,0,0,5,0,0,4,2,0,3,2,0,0,0,0,0,0,0,0,0,0,0,0,0,0,0,0,0,0,0,0,0,0,0,0,0,0,0,0,0,0,0,0,0,0,0],"split_type":[0,0,0,0,0,0,0,0,0,0,0,0,0,0,0,0,0,0,0,0,0,0,0,0,0,0,0,0,0,0,0,0,0,0,0,0,0,0,0,0,0,0,0,0,0,0,0,0,0,0,0,0,0,0,0,0,0,0,0,0,0,0,0,0,0,0,0,0,0,0,0,0,0,0,0,0,0,0,0],"sum_hessian":[4.952033E3,4.455268E3,4.9676532E2,3.50793E3,9.473381E2,3.7962473E2,1.1714058E2,2.5011697E3,1.00676025E3,3.7368655E2,5.938186E0,9.226399E1,2.4876595E1,1.2655159E3,1.2356539E3,6.0856873E1,9.459034E2,2.1362343E2,1.6006311E2,1.2154669E0,4.7227197E0,8.49789E1,7.285093E0,2.3791704E1,1.0848894E0,5.7076556E2,6.9475024E2,8.61033E2,3.746209E2,4.211029E0,5.6645844E1,6.307285E1,8.8283057E2,8.9552155E1,1.2407127E2,2.3966923E1,1.3609619E2,3.50747E0,1.2152495E0,4.495923E1,4.001967E1,2.2103605E0,5.0747323E0,2.2458923E1,1.3327805E0,1.7518045E1,5.5324756E2,6.9343285E1,6.25407E2,9.374316E1,7.6728986E2,9.65209E0,3.649688E2,1.7486835E0,2.4623456E0,4.2424755E1,1.422109E1,5.965881E1,3.4140382E0,8.18942E2,6.3888542E1,8.8301636E1,1.2505198E0,1.0023348E0,1.2306894E2,1.1138967E0,2.2853027E1,1.0301579E2,3.3080395E1,4.3942554E1,1.0166721E0,2.6494022E1,1.3525644E1,1.0038756E0,1.2064849E0,3.714873E0,1.359859E0,3.9934049E0,1.8465519E1],"tree_param":{"num_deleted":"0","num_feature":"6","num_nodes":"79","size_leaf_vector":"1"}},{"base_weights":[-4.896649E-1,-6.88425E-1,1.0586824E-2,-5.523947E-1,-1.6248797E0,9.413781E-2,-1.0157766E0,-8.39243E-1,-2.8908432E-1,-1.281016E0,-2.1878467E0,-1.7086017E-3,1.0379468E0,-9.712257E-1,-2.728662E-1,-5.785771E-1,-1.5902982E0,-7.780367E-1,-1.9348036E-2,-1.7655162E0,-9.921663E-1,-4.383539E0,-2.0098846E0,3.051648E-1,-4.2539367E-1,7.091295E-1,2.0912104E0,-9.907433E-2,-2.0861834E-1,-8.9265144E-1,4.8305497E-1,-1.2786527E0,-1.0366972E1,1.9091085E-1,-9.4924635E-1,3.0602375E-1,-9.923245E-2,-1.4422128E-1,-3.3340027E0,-9.1083395E-1,-2.864843E0,-2.4280465E0,-6.3281646E0,-2.2311938E0,8.31461E-1,-1.18880585E-1,1.431925E0,-1.024951E0,1.9699031E-1,9.7584593E-1,-1.9891814E0,9.64204E-1,7.827818E-1,4.9681406E-2,-6.412375E-2,-5.374369E-2,-2.5627276E-1,4.668188E-1,-9.892064E-2,8.362969E-2,-1.9257265E-1,-3.6851888E0,-4.7222397E-1,-8.892239E-2,9.830236E-2,-6.514271E-2,-9.769608E-2,6.94849E-1,2.0998036E-2,-1.2630664E0,-1.3417067E-1,-1.1255928E-1,3.675E-2,-6.28296E-1,-1.07104085E-1,-9.617635E-2,-2.8538373E-1,-3.1994396E-1,-9.2802924E-1,-9.511455E-2,-2.4267434E-1,3.189462E-1,-1.3424382E-1,1.4530829E-2,-1.3375239E-1,7.2186522E0,1.2468892E-2,-6.1960537E-2,-1.0374671E-1,6.116261E-2,-1.2440448E-1,1.5460631E-1,4.4202372E-2,-1.12583496E-1,-4.022313E-1,1.0313889E-1,-9.8321475E-3],"categories":[],"categories_nodes":[],"categories_segments":[],"categories_sizes":[],"default_left":[0,0,0,0,0,0,0,0,0,0,0,0,0,0,0,0,0,0,0,0,0,0,0,0,0,0,0,0,0,0,0,0,0,0,0,0,0,0,0,0,0,0,0,0,0,0,0,0,0,0,0,0,0,0,0,0,0,0,0,0,0,0,0,0,0,0,0,0,0,0,0,0,0,0,0,0,0,0,0,0,0,0,0,0,0,0,0,0,0,0,0,0,0,0,0,0,0],"id":16,"left_children":[1,3,5,7,9,11,13,15,17,19,21,23,25,27,-1,29,31,33,35,37,39,41,43,45,47,49,51,-1,53,55,57,59,61,63,65,67,-1,-1,69,71,73,75,77,79,81,83,85,87,89,91,93,95,-1,-1,-1,-1,-1,-1,-1,-1,-1,-1,-1,-1,-1,-1,-1,-1,-1,-1,-1,-1,-1,-1,-1,-1,-1,-1,-1,-1,-1,-1,-1,-1,-1,-1,-1,-1,-1,-1,-1,-1,-1,-1,-1,-1,-1],"loss_changes":[4.7367188E2,4.3339417E2,1.1633845E2,2.2471259E2,8.080676E1,1.1347726E2,5.1431503E0,2.7804602E2,2.049936E2,3.6109894E1,5.4632446E1,1.4832011E2,3.856926E1,1.2979507E0,0E0,3.5366153E2,9.8935596E2,9.185617E1,3.1776868E2,4.578238E1,2.355362E1,2.770488E1,9.745752E1,3.1627554E2,1.7901099E2,6.645793E1,1.6701932E2,0E0,1.4750345E0,4.8381427E2,1.4988427E3,4.8761407E2,1.6840916E3,7.258515E1,3.2412415E0,4.784546E2,0E0,0E0,2.8472302E2,4.601146E1,3.4251526E1,1.7940674E0,1.7010208E1,3.3066284E1,6.433185E1,1.5524966E2,1.6730234E4,5.9625244E-1,1.4174452E2,2.4353935E1,1.020401E1,1.7938156E0,0E0,0E0,0E0,0E0,0E0,0E0,0E0,0E0,0E0,0E0,0E0,0E0,0E0,0E0,0E0,0E0,0E0,0E0,0E0,0E0,0E0,0E0,0E0,0E0,0E0,0E0,0E0,0E0,0E0,0E0,0E0,0E0,0E0,0E0,0E0,0E0,0E0,0E0,0E0,0E0,0E0,0E0,0E0,0E0,0E0],"parents":[2147483647,0,0,1,1,2,2,3,3,4,4,5,5,6,6,7,7,8,8,9,9,10,10,11,11,12,12,13,13,15,15,16,16,17,17,18,18,19,19,20,20,21,21,22,22,23,23,24,24,25,25,26,26,28,28,29,29,30,30,31,31,32,32,33,33,34,34,35,35,38,38,39,39,40,40,41,41,42,42,43,43,44,44,45,45,46,46,47,47,48,48,49,49,50,50,51,51],"right_children":[2,4,6,8,10,12,14,16,18,20,22,24,26,28,-1,30,32,34,36,38,40,42,44,46,48,50,52,-1,54,56,58,60,62,64,66,68,-1,-1,70,72,74,76,78,80,82,84,86,88,90,92,94,96,-1,-1,-1,-1,-1,-1,-1,-1,-1,-1,-1,-1,-1,-1,-1,-1,-1,-1,-1,-1,-1,-1,-1,-1,-1,-1,-1,-1,-1,-1,-1,-1,-1,-1,-1,-1,-1,-1,-1,-1,-1,-1,-1,-1,-1],"split_conditions":[4.06E2,7.123984E5,4.0754E2,1.2384236E5,3.0932568E6,3.8977166E5,5.670451E5,4.77635E3,3.0774E4,6.1193E5,1.3E1,1.6264019E5,7.6864756E5,3.4922284E5,-2.728662E-1,5.5255E4,2.5056261E5,2.843321E4,4.0754E2,2.78049E5,1.1376032E6,1.4658019E6,7.6864756E5,6.6144E4,1.6673444E5,7.123984E5,8.2822644E5,-9.907433E-2,1.2384236E5,5.023053E4,4.0754E2,6.294235E4,3.8E1,1.19E2,4.656725E4,6.294235E4,-9.923245E-2,-1.4422128E-1,1.5941221E6,9.1720225E5,4.4280488E5,7.95478E5,5.645389E5,2.78049E5,4.0754E2,6.461791E4,7.607142E4,1.6708442E5,3.9357203E5,5.1395006E5,3.1440838E6,5.382529E5,7.827818E-1,4.9681406E-2,-6.412375E-2,-5.374369E-2,-2.5627276E-1,4.668188E-1,-9.892064E-2,8.362969E-2,-1.9257265E-1,-3.6851888E0,-4.7222397E-1,-8.892239E-2,9.830236E-2,-6.514271E-2,-9.769608E-2,6.94849E-1,2.0998036E-2,-1.2630664E0,-1.3417067E-1,-1.1255928E-1,3.675E-2,-6.28296E-1,-1.07104085E-1,-9.617635E-2,-2.8538373E-1,-3.1994396E-1,-9.2802924E-1,-9.511455E-2,-2.4267434E-1,3.189462E-1,-1.3424382E-1,1.4530829E-2,-1.3375239E-1,7.2186522E0,1.2468892E-2,-6.1960537E-2,-1.0374671E-1,6.116261E-2,-1.2440448E-1,1.5460631E-1,4.4202372E-2,-1.12583496E-1,-4.022313E-1,1.0313889E-1,-9.8321475E-3],"split_indices":[0,1,3,5,5,2,1,5,2,5,0,1,2,1,0,2,1,1,3,2,2,1,2,2,2,1,4,0,5,1,3,1,0,2,4,1,0,0,3,2,3,1,2,2,3,1,5,1,1,1,4,4,0,0,0,0,0,0,0,0,0,0,0,0,0,0,0,0,0,0,0,0,0,0,0,0,0,0,0,0,0,0,0,0,0,0,0,0,0,0,0,0,0,0,0,0,0],"split_type":[0,0,0,0,0,0,0,0,0,0,0,0,0,0,0,0,0,0,0,0,0,0,0,0,0,0,0,0,0,0,0,0,0,0,0,0,0,0,0,0,0,0,0,0,0,0,0,0,0,0,0,0,0,0,0,0,0,0,0,0,0,0,0,0,0,0,0,0,0,0,0,0,0,0,0,0,0,0,0,0,0,0,0,0,0,0,0,0,0,0,0,0,0,0,0,0,0],"sum_hessian":[4.7627954E3,3.4082522E3,1.3545435E3,2.9773494E3,4.3090277E2,1.2534175E3,1.0112601E2,1.4239366E3,1.5534126E3,2.69541E2,1.6136177E2,1.1387704E3,1.1464709E2,1.0008976E2,1.0362515E0,1.0583793E3,3.6555737E2,5.516142E2,1.00179846E3,9.876534E1,1.7077565E2,1.0326145E1,1.5103563E2,6.6058844E2,4.7818192E2,8.864604E1,2.6001045E1,9.730037E1,2.789387E0,8.168737E2,2.415056E2,3.5412854E2,1.1428842E1,8.281486E1,4.6879932E2,7.512571E2,2.5054143E2,8.3477974E1,1.5287364E1,1.6509192E2,5.683738E0,6.26985E0,4.056295E0,1.4032094E2,1.0714696E1,4.8061002E2,1.7997847E2,2.4322787E2,2.3495403E2,8.125289E1,7.39315E0,2.270795E1,3.293095E0,1.0039505E0,1.7854365E0,6.746927E2,1.4218102E2,6.2283695E1,1.7922191E2,8.289506E1,2.7123346E2,1.0366002E0,1.03922415E1,3.4985542E1,4.7829315E1,4.1997612E1,4.268017E2,9.690691E0,7.4156635E2,1.7555729E0,1.3531791E1,1.4144823E2,2.3643682E1,1.0948642E0,4.588874E0,2.144313E0,4.1255364E0,2.980876E0,1.0754191E0,1.9372738E1,1.209482E2,4.9156213E0,5.799074E0,3.9570593E2,8.490406E1,2.2813056E0,1.7769716E2,8.798104E0,2.3442976E2,1.8290227E2,5.205176E1,3.8370335E1,4.2882557E1,6.2801147E0,1.1130353E0,2.138505E1,1.3229003E0],"tree_param":{"num_deleted":"0","num_feature":"6","num_nodes":"97","size_leaf_vector":"1"}},{"base_weights":[-4.6228978E-1,-3.6244205E-1,-1.3815039E0,-2.1418731E-1,-9.939899E-2,-1.7839147E0,-2.1759433E-1,-8.886756E-1,-2.7864536E-2,-1.6800172E0,-8.731164E0,4.4759467E-1,-2.6363466E0,1.488511E0,-9.592695E-1,1.9889921E0,-1.1046551E-1,-1.3335222E0,-2.1030462E0,-1.9582048E-1,-1.0266606E0,-1.7197758E-1,3.2837722E0,-5.9399467E0,-1.5554924E0,-8.383398E-2,8.8620025E-1,-7.6528275E-1,-9.8284197E-1,8.618884E-1,8.727544E0,-3.814235E-1,3.0516595E-1,-1.68141E0,-1.0511608E0,-1.7001593E0,-2.6936498E0,-6.0205805E-1,8.9507484E-1,-1.2199479E-1,6.8872924E0,-1.8416642E0,8.23411E-2,-4.703349E-2,-1.6272657E-1,-5.8694076E-2,3.196012E-1,-8.180109E-2,1.8820956E-2,-5.679643E-2,-9.89052E-2,5.9256475E-2,9.0100527E-1,4.1772842E-1,1.4554415E0,2.4330596E-2,-8.3573245E-2,4.4169283E-1,6.3358867E-3,-1.3858376E-1,-1.2046587E0,-5.6478083E-2,-1.07457496E-1,-9.035831E-2,-1.9109558E-1,-2.897052E-1,-9.087522E-2,-1.0614877E-1,3.3983313E-3,9.642061E-2,-1.7201243E-2,8.5150766E-1,-1.4096223E-1],"categories":[],"categories_nodes":[],"categories_segments":[],"categories_sizes":[],"default_left":[0,0,0,0,0,0,0,0,0,0,0,0,0,0,0,0,0,0,0,0,0,0,0,0,0,0,0,0,0,0,0,0,0,0,0,0,0,0,0,0,0,0,0,0,0,0,0,0,0,0,0,0,0,0,0,0,0,0,0,0,0,0,0,0,0,0,0,0,0,0,0,0,0],"id":17,"left_children":[1,3,5,7,-1,9,11,13,15,17,19,21,23,25,27,29,31,33,35,-1,-1,37,39,41,43,45,-1,47,49,51,53,55,57,59,61,63,65,67,69,-1,71,-1,-1,-1,-1,-1,-1,-1,-1,-1,-1,-1,-1,-1,-1,-1,-1,-1,-1,-1,-1,-1,-1,-1,-1,-1,-1,-1,-1,-1,-1,-1,-1],"loss_changes":[4.198299E2,3.8669666E2,2.0961133E2,4.2072314E2,0E0,2.2571497E2,1.8834625E2,1.23032776E2,4.3741888E2,4.547284E1,2.8450256E1,1.6239212E2,8.0873886E1,2.4757678E2,2.468567E0,7.7707874E2,2.8414404E2,1.6286621E1,3.0296204E1,0E0,0E0,3.5660885E1,2.7717264E2,5.102138E2,8.2118607E-1,3.2467262E1,0E0,4.2179146E0,1.0473022E0,1.9131161E2,3.287782E2,4.3364545E2,9.898553E2,2.3046443E2,5.7884216E-1,1.33594055E1,1.8325195E1,1.6150238E1,1.817358E0,0E0,1.3828494E2,0E0,0E0,0E0,0E0,0E0,0E0,0E0,0E0,0E0,0E0,0E0,0E0,0E0,0E0,0E0,0E0,0E0,0E0,0E0,0E0,0E0,0E0,0E0,0E0,0E0,0E0,0E0,0E0,0E0,0E0,0E0,0E0],"parents":[2147483647,0,0,1,1,2,2,3,3,5,5,6,6,7,7,8,8,9,9,10,10,11,11,12,12,13,13,14,14,15,15,16,16,17,17,18,18,21,21,22,22,23,23,24,24,25,25,27,27,28,28,29,29,30,30,31,31,32,32,33,33,34,34,35,35,36,36,37,37,38,38,40,40],"right_children":[2,4,6,8,-1,10,12,14,16,18,20,22,24,26,28,30,32,34,36,-1,-1,38,40,42,44,46,-1,48,50,52,54,56,58,60,62,64,66,68,70,-1,72,-1,-1,-1,-1,-1,-1,-1,-1,-1,-1,-1,-1,-1,-1,-1,-1,-1,-1,-1,-1,-1,-1,-1,-1,-1,-1,-1,-1,-1,-1,-1,-1],"split_conditions":[7.123984E5,4.0754E2,7.6864756E5,1.02E3,-9.939899E-2,6.0476275E5,1.1376032E6,5.2563E2,1.437122E4,3.0932568E6,1.93499E4,1.8082081E6,4.0754E2,5E1,3.9E1,4.77635E3,1.25673E5,5.6852256E5,4.2579028E5,-1.9582048E-1,-1.0266606E0,4.04E2,7.95478E5,2.83332E6,1E1,5.5E2,8.8620025E-1,4.0267125E5,1.04564E3,1.2184E4,6.116E3,8.031837E4,1.5821498E5,1.25673E5,5E1,2.78049E5,2.83332E6,9.1720225E5,1.4714765E6,-1.2199479E-1,1.2159621E6,-1.8416642E0,8.23411E-2,-4.703349E-2,-1.6272657E-1,-5.8694076E-2,3.196012E-1,-8.180109E-2,1.8820956E-2,-5.679643E-2,-9.89052E-2,5.9256475E-2,9.0100527E-1,4.1772842E-1,1.4554415E0,2.4330596E-2,-8.3573245E-2,4.4169283E-1,6.3358867E-3,-1.3858376E-1,-1.2046587E0,-5.6478083E-2,-1.07457496E-1,-9.035831E-2,-1.9109558E-1,-2.897052E-1,-9.087522E-2,-1.0614877E-1,3.3983313E-3,9.642061E-2,-1.7201243E-2,8.5150766E-1,-1.4096223E-1],"split_indices":[1,3,2,2,0,2,2,1,1,5,4,5,3,2,0,5,2,5,2,0,0,0,1,1,0,0,0,1,1,2,2,1,1,2,2,2,1,2,5,0,1,0,0,0,0,0,0,0,0,0,0,0,0,0,0,0,0,0,0,0,0,0,0,0,0,0,0,0,0,0,0,0,0],"split_type":[0,0,0,0,0,0,0,0,0,0,0,0,0,0,0,0,0,0,0,0,0,0,0,0,0,0,0,0,0,0,0,0,0,0,0,0,0,0,0,0,0,0,0,0,0,0,0,0,0,0,0,0,0,0,0,0,0,0,0,0,0,0,0,0,0,0,0,0,0,0,0,0,0],"sum_hessian":[4.57869E3,4.131327E3,4.473625E2,3.346971E3,7.843563E2,3.3203265E2,1.15329834E2,7.2363684E2,2.6233342E3,3.2836374E2,3.6689205E0,9.1092995E1,2.4236835E1,2.0290398E1,7.0334644E2,1.0230431E2,2.5210298E3,1.8279343E2,1.4557031E2,1.098534E0,2.5703864E0,7.553212E1,1.5560875E1,4.8666015E0,1.9370234E1,1.7538967E1,2.7514307E0,7.983327E1,6.235132E2,8.861097E1,1.3693345E1,1.5261719E3,9.94858E2,7.967446E1,1.03118965E2,8.8843445E1,5.672687E1,5.4144646E1,2.1387478E1,7.2105303E0,8.350346E0,1.1050533E0,3.761548E0,1.6702548E0,1.7699978E1,1.5918258E1,1.6207098E0,7.578448E1,4.0487876E0,1.055874E1,6.129544E2,8.68142E1,1.7967715E0,8.65302E0,5.040325E0,6.427616E2,8.834103E2,5.4297646E1,9.405603E2,7.856773E1,1.1067277E0,5.8899174E0,9.722904E1,1.9697052E1,6.914639E1,5.036439E1,6.36248E0,3.1048552E1,2.3096094E1,2.0176743E1,1.2107354E0,6.9587946E0,1.3915507E0],"tree_param":{"num_deleted":"0","num_feature":"6","num_nodes":"73","size_leaf_vector":"1"}},{"base_weights":[-4.3607578E-1,-6.23266E-1,1.2994731E-2,-4.999267E-1,-1.5019494E0,-1.7016955E-1,4.4053003E-1,3.2611961E0,-5.204679E-1,-1.7464929E0,-6.922467E-1,4.2723188E-1,-3.521532E-1,1.3193072E0,1.2501429E-1,4.7120113E0,-7.932375E-2,-8.286953E-1,-2.5064152E-1,-1.631445E0,-1.3705882E0,-3.3733544E-1,-3.526187E0,5.5559236E-1,-1.0581174E-1,-6.175853E-1,-1.2034554E-1,2.4230351E0,3.6162475E-1,-4.4442812E-1,7.9504156E-1,6.200682E-1,7.4058642E0,-7.2012365E-1,-2.6003594E0,-7.409075E-1,1.093669E-2,-1.3243103E0,-1.9991603E0,3.837135E-1,-1.4005493E0,-5.761975E0,2.9001903E-4,-8.442141E-1,7.0162374E-1,-2.2709514E-1,-9.51641E-1,4.310448E0,-3.4630117E-1,1.1259357E0,4.1150904E0,-9.0702444E-1,8.6404014E-1,7.3341675E-2,-9.126914E-1,8.100416E-2,1.2138081E0,2.4613059E-1,-3.3886217E-2,8.7981254E-1,3.613039E-2,-5.0568987E-2,-1.16634645E-1,-1.13492385E-1,-1.919088E0,7.176523E-3,-9.460692E-2,2.8050875E-2,-9.9033095E-2,-1.6923325E-1,-1.0611588E-1,-1.6285275E-1,-2.513772E-1,-3.8230743E-2,9.114108E-1,-1.5418822E-1,-9.924856E-2,-2.6597282E-1,-9.388072E-1,7.6456994E-2,-1.266642E-1,4.7030818E-2,-9.45678E-2,4.602533E-1,5.661827E-2,-4.4780627E-2,1.3897316E-1,-7.017999E-2,-1.1937503E-1,1.2408484E0,-8.363469E-2,-6.508242E-2,-1.3406475E-3,1.9583385E-1,-9.297502E-2,6.7336786E-1,2.3038566E-1,2.3590839E-2,-1.00839555E-1,1.3708358E-1,9.089225E-3,6.8577215E-2,-1.7317958E-2,-8.1105046E-2,-1.13793544E-1,1.5955842E-1,-3.3981718E-2,9.592369E-1,6.190401E-2],"categories":[],"categories_nodes":[],"categories_segments":[],"categories_sizes":[],"default_left":[0,0,0,0,0,0,0,0,0,0,0,0,0,0,0,0,0,0,0,0,0,0,0,0,0,0,0,0,0,0,0,0,0,0,0,0,0,0,0,0,0,0,0,0,0,0,0,0,0,0,0,0,0,0,0,0,0,0,0,0,0,0,0,0,0,0,0,0,0,0,0,0,0,0,0,0,0,0,0,0,0,0,0,0,0,0,0,0,0,0,0,0,0,0,0,0,0,0,0,0,0,0,0,0,0,0,0,0,0],"id":18,"left_children":[1,3,5,7,9,11,13,15,17,19,21,23,25,27,29,31,-1,33,35,37,-1,39,41,43,-1,45,47,49,51,53,55,57,59,61,63,65,67,69,71,73,75,77,79,81,83,85,87,89,91,93,95,97,99,101,103,105,107,-1,-1,-1,-1,-1,-1,-1,-1,-1,-1,-1,-1,-1,-1,-1,-1,-1,-1,-1,-1,-1,-1,-1,-1,-1,-1,-1,-1,-1,-1,-1,-1,-1,-1,-1,-1,-1,-1,-1,-1,-1,-1,-1,-1,-1,-1,-1,-1,-1,-1,-1,-1],"loss_changes":[3.7285004E2,3.3851746E2,1.02336845E2,2.1389679E2,7.499048E1,9.961919E1,1.0850836E2,9.2305176E1,2.2705518E2,3.8340558E2,9.025993E1,4.1405327E1,4.3109657E1,1.0846341E2,1.1081043E2,1.19229095E2,0E0,2.4339441E2,1.8704886E2,3.0469849E1,0E0,6.333101E1,7.89538E1,4.100762E1,0E0,4.2433098E1,3.7782468E2,1.0045404E2,3.683464E1,3.8165726E1,3.9779137E1,1.0634389E1,6.235974E1,1.1450482E2,1.7589873E3,8.467395E1,2.572474E2,1.3964905E1,2.0986206E1,3.35146E2,3.911209E-1,4.39684E1,5.6988206E0,2.9964075E0,9.227416E1,5.488365E1,9.80188E0,7.7366907E2,3.6342125E1,5.0555237E1,8.1243866E1,2.1533985E0,1.5951101E1,1.152514E1,9.67865E-1,3.2647717E1,4.1261264E2,0E0,0E0,0E0,0E0,0E0,0E0,0E0,0E0,0E0,0E0,0E0,0E0,0E0,0E0,0E0,0E0,0E0,0E0,0E0,0E0,0E0,0E0,0E0,0E0,0E0,0E0,0E0,0E0,0E0,0E0,0E0,0E0,0E0,0E0,0E0,0E0,0E0,0E0,0E0,0E0,0E0,0E0,0E0,0E0,0E0,0E0,0E0,0E0,0E0,0E0,0E0,0E0],"parents":[2147483647,0,0,1,1,2,2,3,3,4,4,5,5,6,6,7,7,8,8,9,9,10,10,11,11,12,12,13,13,14,14,15,15,17,17,18,18,19,19,21,21,22,22,23,23,25,25,26,26,27,27,28,28,29,29,30,30,31,31,32,32,33,33,34,34,35,35,36,36,37,37,38,38,39,39,40,40,41,41,42,42,43,43,44,44,45,45,46,46,47,47,48,48,49,49,50,50,51,51,52,52,53,53,54,54,55,55,56,56],"right_children":[2,4,6,8,10,12,14,16,18,20,22,24,26,28,30,32,-1,34,36,38,-1,40,42,44,-1,46,48,50,52,54,56,58,60,62,64,66,68,70,72,74,76,78,80,82,84,86,88,90,92,94,96,98,100,102,104,106,108,-1,-1,-1,-1,-1,-1,-1,-1,-1,-1,-1,-1,-1,-1,-1,-1,-1,-1,-1,-1,-1,-1,-1,-1,-1,-1,-1,-1,-1,-1,-1,-1,-1,-1,-1,-1,-1,-1,-1,-1,-1,-1,-1,-1,-1,-1,-1,-1,-1,-1,-1,-1],"split_conditions":[4.06E2,7.123984E5,6.12E2,8E0,7.6864756E5,4.83E2,6.61E2,4.0754E2,1.2384236E5,6.0476275E5,1.2159621E6,4.0754E2,7.1946E4,1.311847E5,6.91E2,1.0073E4,-7.932375E-2,1.9060997E5,3.618E4,3.0932568E6,-1.3705882E0,4.0754E2,2.5124882E6,3E2,-1.0581174E-1,3.288774E4,4.77635E3,4.0339E4,1.39848E5,6.86E2,6.2174E4,4.95266E3,4.3988338E5,5.023053E4,3.648309E4,3.288774E4,4.0754E2,5.045497E5,4.2579028E5,8.406474E5,1.4089855E6,1.8795555E6,4.0754E2,1.04564E3,9.58405E3,2.4641E4,6.12702E4,4.0754E2,1.73428E5,3.492193E4,5.424923E4,1.3726834E5,3.6729694E5,4.537426E4,7.042607E5,1.653554E4,4.77635E3,2.4613059E-1,-3.3886217E-2,8.7981254E-1,3.613039E-2,-5.0568987E-2,-1.16634645E-1,-1.13492385E-1,-1.919088E0,7.176523E-3,-9.460692E-2,2.8050875E-2,-9.9033095E-2,-1.6923325E-1,-1.0611588E-1,-1.6285275E-1,-2.513772E-1,-3.8230743E-2,9.114108E-1,-1.5418822E-1,-9.924856E-2,-2.6597282E-1,-9.388072E-1,7.6456994E-2,-1.266642E-1,4.7030818E-2,-9.45678E-2,4.602533E-1,5.661827E-2,-4.4780627E-2,1.3897316E-1,-7.017999E-2,-1.1937503E-1,1.2408484E0,-8.363469E-2,-6.508242E-2,-1.3406475E-3,1.9583385E-1,-9.297502E-2,6.7336786E-1,2.3038566E-1,2.3590839E-2,-1.00839555E-1,1.3708358E-1,9.089225E-3,6.8577215E-2,-1.7317958E-2,-8.1105046E-2,-1.13793544E-1,1.5955842E-1,-3.3981718E-2,9.592369E-1,6.190401E-2],"split_indices":[0,1,0,0,2,0,0,3,5,2,1,3,2,1,0,2,0,1,2,5,0,3,2,2,0,1,5,2,2,0,2,1,5,1,5,1,3,5,2,4,2,1,3,1,1,2,1,3,2,1,5,1,4,5,4,1,5,0,0,0,0,0,0,0,0,0,0,0,0,0,0,0,0,0,0,0,0,0,0,0,0,0,0,0,0,0,0,0,0,0,0,0,0,0,0,0,0,0,0,0,0,0,0,0,0,0,0,0,0],"split_type":[0,0,0,0,0,0,0,0,0,0,0,0,0,0,0,0,0,0,0,0,0,0,0,0,0,0,0,0,0,0,0,0,0,0,0,0,0,0,0,0,0,0,0,0,0,0,0,0,0,0,0,0,0,0,0,0,0,0,0,0,0,0,0,0,0,0,0,0,0,0,0,0,0,0,0,0,0,0,0,0,0,0,0,0,0,0,0,0,0,0,0,0,0,0,0,0,0,0,0,0,0,0,0,0,0,0,0,0,0],"sum_hessian":[4.434342E3,3.1294683E3,1.3048733E3,2.745637E3,3.8383148E2,9.139301E2,3.9094315E2,1.4056764E1,2.73158E3,2.9390915E2,8.992233E1,2.1308478E2,7.0084534E2,1.024413E2,2.8850183E2,1.0232895E1,3.8238683E0,1.2740916E3,1.4574885E3,2.922343E2,1.6748421E0,8.090869E1,9.013644E0,1.9671138E2,1.6373396E1,3.259505E2,3.7489484E2,4.688095E1,5.556035E1,1.5613911E2,1.3236273E2,4.5506577E0,5.6822376E0,1.2018462E3,7.2245415E1,5.0644525E2,9.510433E2,1.6174118E2,1.3049312E2,4.8593033E1,3.231566E1,5.1283503E0,3.885294E0,1.8131174E1,1.7858022E2,1.510557E2,1.748948E2,1.7313602E1,3.5758124E2,2.7480396E1,1.9400557E1,1.5532898E1,4.002745E1,7.455038E1,8.158874E1,4.9372047E1,8.299068E1,1.021863E0,3.5287948E0,4.536697E0,1.1455405E0,8.131957E2,3.8865048E2,6.736362E1,4.8817997E0,1.0221365E2,4.042316E2,7.4987396E2,2.0116931E2,6.516949E1,9.65717E1,7.827943E1,5.22137E1,4.5552395E1,3.0406415E0,2.193867E1,1.0376988E1,3.6980457E0,1.4303044E0,2.6707036E0,1.2145902E0,1.038721E0,1.7092453E1,4.8856044E0,1.7369461E2,1.3354822E2,1.7507477E1,8.799173E1,8.6903076E1,6.1796093E0,1.1133993E1,1.8624986E2,1.7133138E2,1.9593723E1,7.886673E0,6.821155E0,1.2579401E1,1.1573143E0,1.4375584E1,2.3711557E1,1.6315893E1,2.0884762E1,5.3665615E1,5.93899E1,2.2198835E1,1.0128156E1,3.9243893E1,4.498063E0,7.8492615E1],"tree_param":{"num_deleted":"0","num_feature":"6","num_nodes":"109","size_leaf_vector":"1"}},{"base_weights":[-4.0853274E-1,-2.8262287E-1,-1.0363364E0,-2.1962146E-1,-1.9161729E0,-1.0035075E0,-1.7573471E0,-8.750565E-1,-7.095279E-2,-1.6786447E0,-4.9099226E0,-9.9284425E-2,-1.2530188E-1,-1.2202634E-1,-2.829851E0,2.6944947E0,-9.210675E-1,4.3181295E0,-1.0067035E-1,-1.0492951E0,-1.8731925E0,-8.156565E0,7.946678E-2,-6.440404E-1,-1.5551437E0,1.0603547E0,7.049796E-1,3.6038938E-1,-9.547126E-1,2.9710937E0,8.445845E0,4.9011865E-1,-2.463322E-1,-1.2324603E-1,-8.281487E-1,-2.4266942E0,-1.5368682E0,-1.5779568E-1,-9.499099E0,-9.068563E-2,-2.4209538E-1,2.0299332E-2,2.655327E-1,-9.2698395E-2,4.2271575E-1,-4.114101E-2,-9.638064E-2,6.185538E-1,-6.438686E-2,3.2296327E-1,1.0470194E0,7.2756275E-3,5.3124386E-1,-1.523692E-1,7.6440943E-4,-1.9761616E-4,-9.353807E-2,-7.7214664E-1,-1.787746E-1,-9.969739E-2,-1.6398755E-1,-1.2943361E0,-3.4511706E-1],"categories":[],"categories_nodes":[],"categories_segments":[],"categories_sizes":[],"default_left":[0,0,0,0,0,0,0,0,0,0,0,0,0,0,0,0,0,0,0,0,0,0,0,0,0,0,0,0,0,0,0,0,0,0,0,0,0,0,0,0,0,0,0,0,0,0,0,0,0,0,0,0,0,0,0,0,0,0,0,0,0,0,0],"id":19,"left_children":[1,3,5,7,9,11,13,15,17,19,21,-1,-1,-1,23,25,27,29,31,33,35,37,-1,-1,39,41,-1,43,45,47,49,51,53,-1,55,57,59,-1,61,-1,-1,-1,-1,-1,-1,-1,-1,-1,-1,-1,-1,-1,-1,-1,-1,-1,-1,-1,-1,-1,-1,-1,-1],"loss_changes":[3.402027E2,3.6897714E2,1.5260132E1,3.368125E2,8.6447876E1,5.924072E-1,1.3821564E1,1.07446014E2,3.6813272E2,1.3325958E1,1.7814981E2,0E0,0E0,0E0,3.255063E1,5.2221966E1,2.758014E1,8.044815E1,2.4116872E2,2.659874E-1,1.3792755E1,3.7966217E1,0E0,0E0,2.3812199E0,9.4111185E0,0E0,8.79835E1,2.6460571E0,1.8820792E2,9.770905E0,1.1153427E3,7.292156E2,0E0,1.5430565E0,1.007119E2,1.7728729E0,0E0,5.4909515E1,0E0,0E0,0E0,0E0,0E0,0E0,0E0,0E0,0E0,0E0,0E0,0E0,0E0,0E0,0E0,0E0,0E0,0E0,0E0,0E0,0E0,0E0,0E0,0E0],"parents":[2147483647,0,0,1,1,2,2,3,3,4,4,5,5,6,6,7,7,8,8,9,9,10,10,14,14,15,15,16,16,17,17,18,18,19,19,20,20,21,21,24,24,25,25,27,27,28,28,29,29,30,30,31,31,32,32,34,34,35,35,36,36,38,38],"right_children":[2,4,6,8,10,12,14,16,18,20,22,-1,-1,-1,24,26,28,30,32,34,36,38,-1,-1,40,42,-1,44,46,48,50,52,54,-1,56,58,60,-1,62,-1,-1,-1,-1,-1,-1,-1,-1,-1,-1,-1,-1,-1,-1,-1,-1,-1,-1,-1,-1,-1,-1,-1,-1],"split_conditions":[4.0754E2,1.2159621E6,7.95478E5,1.02E3,6.0476275E5,7.123984E5,1.6673444E5,1.7677E2,4.7638E3,1.6673444E5,2.83332E6,-9.9284425E-2,-1.2530188E-1,-1.2202634E-1,2.1886545E6,2.1839E3,5.2563E2,3.216E3,4.877757E4,5.599999E5,3.01E2,1.4658019E6,7.946678E-2,-6.440404E-1,2.84E2,5E1,7.049796E-1,1.77E2,1.04564E3,3.13446E3,2.87E2,3.2191E4,5.5255E4,-1.2324603E-1,4.4E1,3.69154E5,3.0932568E6,-1.5779568E-1,1.5535946E6,-9.068563E-2,-2.4209538E-1,2.0299332E-2,2.655327E-1,-9.2698395E-2,4.2271575E-1,-4.114101E-2,-9.638064E-2,6.185538E-1,-6.438686E-2,3.2296327E-1,1.0470194E0,7.2756275E-3,5.3124386E-1,-1.523692E-1,7.6440943E-4,-1.9761616E-4,-9.353807E-2,-7.7214664E-1,-1.787746E-1,-9.969739E-2,-1.6398755E-1,-1.2943361E0,-3.4511706E-1],"split_indices":[3,1,1,2,2,1,2,1,1,2,1,0,0,0,3,4,1,2,1,5,0,1,0,0,0,2,0,2,1,1,0,2,2,0,0,2,5,0,2,0,0,0,0,0,0,0,0,0,0,0,0,0,0,0,0,0,0,0,0,0,0,0,0],"split_type":[0,0,0,0,0,0,0,0,0,0,0,0,0,0,0,0,0,0,0,0,0,0,0,0,0,0,0,0,0,0,0,0,0,0,0,0,0,0,0,0,0,0,0,0,0,0,0,0,0,0,0,0,0,0,0,0,0,0,0,0,0,0,0],"sum_hessian":[4.3065254E3,3.5883167E3,7.182086E2,3.456157E3,1.3215977E2,6.8921906E2,2.8989584E1,6.380966E2,2.8180603E3,1.2389083E2,8.268951E0,6.6574634E2,2.3472696E1,2.0740845E1,8.248739E0,7.387776E0,6.3070886E2,1.7981686E1,2.8000786E3,3.0764193E1,9.312663E1,4.995849E0,3.2731023E0,1.0949328E0,7.153806E0,6.2763195E0,1.1114566E0,1.588739E1,6.148215E2,1.4854025E1,3.1276612E0,5.5335693E2,2.2467217E3,1.4325773E1,1.643842E1,3.2849552E1,6.027708E1,1.2154295E0,3.7804196E0,5.261553E0,1.8922533E0,4.815218E0,1.4611014E0,1.2489498E1,3.3978925E0,1.0882667E1,6.039388E2,7.48618E0,7.367845E0,1.6000777E0,1.5275834E0,5.10214E2,4.3142937E1,3.717958E2,1.8749259E3,2.0054886E0,1.4432932E1,2.3436644E0,3.050589E1,1.1368704E1,4.890838E1,1.6822541E0,2.0981655E0],"tree_param":{"num_deleted":"0","num_feature":"6","num_nodes":"63","size_leaf_vector":"1"}},{"base_weights":[-3.8373393E-1,-2.6302746E-1,-1.0354655E0,-2.0386297E-1,-1.8902653E0,-1.0018018E0,-1.758463E0,-8.6322385E-1,-6.675796E-2,-1.6644839E0,-4.3553667E0,-9.9203095E-2,-1.21586494E-1,-1.1858054E-1,-2.9350476E0,9.8966265E-1,-9.4968736E-1,9.2998844E-1,-1.6628785E-1,-1.0264771E0,-1.8636991E0,-6.794849E0,7.789009E-2,-6.0888094E-1,-1.6042254E0,2.0981984E-1,4.069348E0,-7.265326E-1,-9.789369E-1,7.410128E-1,7.233829E0,-1.0763009E0,-4.573704E-2,-1.1777015E-1,-7.9890853E-1,-2.5139768E0,-1.4901397E0,-9.329607E-1,-3.2270308E0,-8.846754E-2,-2.5912586E-1,-5.3446498E-2,1.5347047E-1,1.996641E-1,5.401234E-1,-8.8514075E-2,-4.379463E-2,-5.150264E-2,-9.8680116E-2,2.805168E-2,1.8908538E-1,1.4393579E0,3.1225893E-1,-2.1021007E-1,-6.722849E-2,8.499616E-1,-1.9611692E-2,8.314853E-3,-9.2403814E-2,-9.5832026E-1,-1.7954777E-1,-9.825775E-2,-1.5823886E-1,-5.862054E-1,-1.8843519E-2],"categories":[],"categories_nodes":[],"categories_segments":[],"categories_sizes":[],"default_left":[0,0,0,0,0,0,0,0,0,0,0,0,0,0,0,0,0,0,0,0,0,0,0,0,0,0,0,0,0,0,0,0,0,0,0,0,0,0,0,0,0,0,0,0,0,0,0,0,0,0,0,0,0,0,0,0,0,0,0,0,0,0,0,0,0],"id":20,"left_children":[1,3,5,7,9,11,13,15,17,19,21,-1,-1,-1,23,25,27,29,31,33,35,37,-1,-1,39,41,43,45,47,49,51,53,55,-1,57,59,61,-1,63,-1,-1,-1,-1,-1,-1,-1,-1,-1,-1,-1,-1,-1,-1,-1,-1,-1,-1,-1,-1,-1,-1,-1,-1,-1,-1],"loss_changes":[3.283565E2,3.3907498E2,1.4118103E1,3.076131E2,6.1532593E1,1.0253906E-1,1.5185516E1,9.4785736E1,2.7977637E2,1.2682007E1,1.27418884E2,0E0,0E0,0E0,2.5451912E1,6.3044804E1,2.9451294E0,2.9966412E2,2.8117896E2,7.604408E-2,1.7212921E1,3.0600952E1,0E0,0E0,2.863041E0,2.2794682E1,3.906334E0,2.761177E0,1.2881165E0,1.3169086E2,1.7106015E2,1.2284732E2,2.9119402E3,0E0,1.722043E0,1.3529825E2,1.1260071E0,0E0,3.346087E1,0E0,0E0,0E0,0E0,0E0,0E0,0E0,0E0,0E0,0E0,0E0,0E0,0E0,0E0,0E0,0E0,0E0,0E0,0E0,0E0,0E0,0E0,0E0,0E0,0E0,0E0],"parents":[2147483647,0,0,1,1,2,2,3,3,4,4,5,5,6,6,7,7,8,8,9,9,10,10,14,14,15,15,16,16,17,17,18,18,19,19,20,20,21,21,24,24,25,25,26,26,27,27,28,28,29,29,30,30,31,31,32,32,34,34,35,35,36,36,38,38],"right_children":[2,4,6,8,10,12,14,16,18,20,22,-1,-1,-1,24,26,28,30,32,34,36,38,-1,-1,40,42,44,46,48,50,52,54,56,-1,58,60,62,-1,64,-1,-1,-1,-1,-1,-1,-1,-1,-1,-1,-1,-1,-1,-1,-1,-1,-1,-1,-1,-1,-1,-1,-1,-1,-1,-1],"split_conditions":[4.0754E2,1.2159621E6,7.95478E5,1.02E3,6.0476275E5,7.123984E5,1.6673444E5,5.2563E2,2.225043E4,1.6673444E5,2.83332E6,-9.9203095E-2,-1.21586494E-1,-1.1858054E-1,2.5091592E6,2.757975E4,3.9E1,2.1252E4,4.5E1,1.6411119E6,3.01E2,1.4089855E6,7.789009E-2,-6.0888094E-1,2.84E2,5E1,1.19E2,9.461688E4,1.04564E3,4.77635E3,3.45E2,1.2384236E5,1.29E2,-1.1777015E-1,4.4E1,3.69154E5,3.0932568E6,-9.329607E-1,1.4E1,-8.846754E-2,-2.5912586E-1,-5.3446498E-2,1.5347047E-1,1.996641E-1,5.401234E-1,-8.8514075E-2,-4.379463E-2,-5.150264E-2,-9.8680116E-2,2.805168E-2,1.8908538E-1,1.4393579E0,3.1225893E-1,-2.1021007E-1,-6.722849E-2,8.499616E-1,-1.9611692E-2,8.314853E-3,-9.2403814E-2,-9.5832026E-1,-1.7954777E-1,-9.825775E-2,-1.5823886E-1,-5.862054E-1,-1.8843519E-2],"split_indices":[3,1,1,2,2,1,2,1,1,2,1,0,0,0,3,5,0,2,0,5,0,2,0,0,0,2,2,1,1,5,0,5,0,0,0,2,5,0,0,0,0,0,0,0,0,0,0,0,0,0,0,0,0,0,0,0,0,0,0,0,0,0,0,0,0],"split_type":[0,0,0,0,0,0,0,0,0,0,0,0,0,0,0,0,0,0,0,0,0,0,0,0,0,0,0,0,0,0,0,0,0,0,0,0,0,0,0,0,0,0,0,0,0,0,0,0,0,0,0,0,0,0,0,0,0,0,0,0,0,0,0,0,0],"sum_hessian":[4.1764043E3,3.5249548E3,6.514493E2,3.4023738E3,1.2258112E2,6.2474603E2,2.6703272E1,5.8477875E2,2.817595E3,1.1383048E2,8.750643E0,6.028627E2,2.1883383E1,1.931182E1,7.391454E0,2.560591E1,5.5917285E2,2.5504927E2,2.5625457E3,2.8549723E1,8.528076E1,5.712832E0,3.0378108E0,1.1324852E0,6.2589693E0,2.1284376E1,4.321533E0,6.779344E1,4.9137943E2,2.48711E2,6.338275E0,2.988279E2,2.2637178E3,1.4643587E1,1.39061365E1,2.9025135E1,5.6255627E1,2.395801E0,3.3170311E0,4.7167454E0,1.5422237E0,1.4010339E1,7.2740374E0,2.6682527E0,1.6532804E0,4.241489E1,2.537855E1,9.29933E0,4.820801E2,1.7847722E2,7.023379E1,1.3996847E0,4.9385905E0,8.325071E1,2.155772E2,3.8187508E1,2.2255303E3,1.7693341E0,1.2136802E1,1.539581E0,2.7485554E1,1.0443857E1,4.5811768E1,1.278841E0,2.0381901E0],"tree_param":{"num_deleted":"0","num_feature":"6","num_nodes":"65","size_leaf_vector":"1"}},{"base_weights":[-3.607095E-1,-2.4520946E-1,-1.0349026E0,-1.478098E-1,-1.189957E0,-1.00011006E-1,-1.767931E0,-9.106978E-1,-1.754355E-2,-1.7564223E0,3.380969E-1,-1.1552983E-1,-3.0655375E0,1.4306422E0,-9.4927293E-1,-6.442582E-2,1.4813874E0,-1.607067E0,-1.7819723E0,-4.3588123E0,6.44315E-1,-6.037123E-1,-1.6668347E0,-2.6694348E-1,3.7587515E-1,-6.892678E-1,-9.82697E-2,4.201759E-1,-2.3748781E-1,-5.218396E-1,1.7097263E0,-1.2435846E0,-1.9696325E0,-8.7014765E-1,-6.9840616E-1,5.963435E-3,2.5314467E0,-8.811071E-2,-2.822598E-1,-7.247145E-2,4.1411262E-2,-9.1812834E-2,-2.1688817E-2,1.6413992E-2,3.997296E-1,-1.5684918E-1,2.6518644E-3,2.1566804E-2,-9.3900494E-2,2.3199163E-1,8.527994E-2,-1.6836889E-1,-1.0408994E-1,-1.5513127E-1,-2.5596294E-1,-1.7261036E-1,3.5945736E-2,-4.364423E-2,8.747237E-2,3.5753116E-1,-7.9682745E-2],"categories":[],"categories_nodes":[],"categories_segments":[],"categories_sizes":[],"default_left":[0,0,0,0,0,0,0,0,0,0,0,0,0,0,0,0,0,0,0,0,0,0,0,0,0,0,0,0,0,0,0,0,0,0,0,0,0,0,0,0,0,0,0,0,0,0,0,0,0,0,0,0,0,0,0,0,0,0,0,0,0],"id":21,"left_children":[1,3,5,7,9,-1,11,13,15,17,19,-1,21,23,25,27,29,31,-1,33,35,-1,37,39,-1,41,-1,43,45,47,49,51,53,55,-1,57,59,-1,-1,-1,-1,-1,-1,-1,-1,-1,-1,-1,-1,-1,-1,-1,-1,-1,-1,-1,-1,-1,-1,-1,-1],"loss_changes":[3.1500092E2,3.1799384E2,1.3325623E1,3.1160257E2,2.8019263E2,0E0,1.6741547E1,4.2661774E1,1.8838245E2,5.371202E2,1.2966249E2,0E0,2.1434334E1,3.1875082E1,3.2377625E0,2.1807224E2,3.8081207E1,2.8486572E1,0E0,4.454252E1,1.00780075E2,0E0,3.446722E0,1.9995856E0,0E0,5.710705E0,0E0,6.260681E2,6.7322705E2,2.997697E0,3.630609E1,8.946106E0,2.4611298E1,4.3205414E0,0E0,2.4797142E1,7.631854E1,0E0,0E0,0E0,0E0,0E0,0E0,0E0,0E0,0E0,0E0,0E0,0E0,0E0,0E0,0E0,0E0,0E0,0E0,0E0,0E0,0E0,0E0,0E0,0E0],"parents":[2147483647,0,0,1,1,2,2,3,3,4,4,6,6,7,7,8,8,9,9,10,10,12,12,13,13,14,14,15,15,16,16,17,17,19,19,20,20,22,22,23,23,25,25,27,27,28,28,29,29,30,30,31,31,32,32,33,33,35,35,36,36],"right_children":[2,4,6,8,10,-1,12,14,16,18,20,-1,22,24,26,28,30,32,-1,34,36,-1,38,40,-1,42,-1,44,46,48,50,52,54,56,-1,58,60,-1,-1,-1,-1,-1,-1,-1,-1,-1,-1,-1,-1,-1,-1,-1,-1,-1,-1,-1,-1,-1,-1,-1,-1],"split_conditions":[4.0754E2,7.123984E5,7.95478E5,1.19E2,7.6864756E5,-1.00011006E-1,1.6673444E5,1.7677E2,5.27095E5,6.0476275E5,1.4E1,-1.1552983E-1,2.1771645E6,3.51E2,3.9E1,5.023053E4,4.4E1,3.0932568E6,-1.7819723E0,1.1376032E6,8.406474E5,-6.037123E-1,2.84E2,2.12E2,3.7587515E-1,9.461688E4,-9.82697E-2,3.618E4,5.5255E4,3.6729694E5,3.93E2,5.045497E5,4.2579028E5,9.1720225E5,-6.9840616E-1,4.04E2,1.2159621E6,-8.811071E-2,-2.822598E-1,-7.247145E-2,4.1411262E-2,-9.1812834E-2,-2.1688817E-2,1.6413992E-2,